ENSP00000000233 0.8787148 0.73589444 -0.49181396 -0.037161093 0.8122981 -0.06509913 -0.39410445 0.4641972 -0.14393091 2.8464024 1.103992 -0.037664894 -1.2594242 0.67149943 0.111093745 0.32189748 0.3284827 -0.8300053 -0.6674208 -0.81032753 0.59469473 0.32960564 0.6768857 -0.83189666 -0.7114121 0.5959562 0.56298906 1.2015674 0.72960716 -1.4056456 -0.26765177 1.399276 0.3570049 0.20017481 -1.6022636 0.96659255 -1.436788 -0.26852673 -0.43905538 0.92479765 0.1978748 1.1222857 -0.16494553 -0.2283203 -0.005126836 -0.1722717 -1.2669632 -0.12969407 -0.38035214 -1.089348 1.0644646 -0.25828248 -0.2306309 -0.008651777 1.5816898 0.843118 0.88298625 -1.385795 -1.3910481 0.80778617 1.5564569 -2.5563705 -1.8850393 -0.019016592 2.0649397 -2.2824755 0.8150876 -0.4526494 1.0322908 0.2436729 0.760415 -2.3187675 0.26889348 0.1532915 -1.1585662 -0.6610364 -0.5499415 -1.2424834 -0.13109152 0.40676868 -0.66785824 0.5848448 1.430047 -0.73956907 1.5228465 0.18111087 0.23360117 1.1539788 1.7764443 0.13095382 -1.3692546 0.028868318 -0.84206283 0.61727536 0.5297307 -1.7385607 -0.68647134 0.49111947 -0.8819437 -2.9443974 -0.7754449 -0.79936916 -0.32807034 -1.5289285 0.23731992 1.0192769 0.16586976 -2.5280209 1.0444498 1.7712017 -1.1367399 1.4125296 -0.6749379 -0.1294166 1.2646668 -1.2790586 0.15629652 -0.6144817 1.2623613 0.62027085 0.46728125 -1.4550704 -0.8550529 0.51288384 0.6595021 -0.28924543 1.0321316 -0.82339007 -1.479159 0.64570254 1.2021043 -0.7967456 0.13483304 0.9435765 -0.7037454 0.3752182 0.8231179 0.24322705 0.38867736 0.60095525 0.45750362 -0.26102892 -0.5104655 0.8798725 1.28514 -0.44590998 1.4963062 1.0893092 -0.00366932 0.46820956 0.6521832 1.2809106 -0.4093666 0.93312883 -1.307997 -0.8727783 0.39856324 -0.5981014 0.35617152 -0.8995368 0.98655677 -0.016835377 -2.661115 -0.51905125 1.0426601 -0.7075251 0.7890247 0.7768011 0.7927218 0.036859278 -0.73910904 -0.73260546 -0.39374486 0.18197308 -0.97179186 -0.59352785 -0.31659603 -0.953027 -0.24655418 -0.23527117 0.33159816 -1.1842047 0.31908873 -0.2864808 -0.6735599 -0.48312572 -1.1299572 0.8174616 -1.3028799 1.5352538 -0.8789764 1.1015104 1.3298619 -0.15643558 0.5302058 -0.2960162 0.3036133 0.09868916 0.23771328 1.2397052
ENSP00000216416 0.11042621 -1.0279198 -0.4105806 -0.8615746 0.04486861 -1.2326591 0.14413306 -1.3548361 1.068043 -0.42167166 1.1587309 -0.12184497 -1.1712834 -0.088629045 0.16017036 -1.6340139 0.9753559 1.5673494 0.39966932 -0.79175025 -1.0092329 -1.3647745 -0.8149586 0.07766153 -0.4085482 0.5502546 -0.39186338 1.0951583 -0.26342082 -0.6915726 0.3442267 1.6480285 -0.65545654 0.42793602 -0.24994075 0.1825404 -0.92875874 -1.3310035 -0.6092827 2.7186728 -0.24531384 -1.206627 0.05191007 -0.35711485 -0.17581992 0.8297807 -0.51979566 -0.96618634 -1.4940807 -1.303231 0.8009514 -0.3011799 0.6287388 0.16843243 0.7744445 -0.097890265 -1.23075 -0.3815509 1.7467527 0.087760076 0.7213042 1.5155468 -0.59916925 -0.40216082 -0.38370538 0.17092577 -1.2102306 -0.3007675 -0.3841814 -0.35859385 0.7419021 1.3777418 -0.65037954 0.24818937 -0.19543637 1.1061573 -1.8294939 -0.6043427 -0.6280983 -0.594241 -0.6794044 -0.45486888 -0.056209262 -0.09450921 -0.87127244 -1.0715796 2.2156258 -1.4191513 -2.2084677 -0.4791676 0.5695309 -1.4676093 -0.07759571 0.8684696 -0.31250584 0.87379974 1.0562197 1.1775548 0.44008896 -1.5475007 -0.51884925 0.4992784 -0.3886766 1.0998014 0.6245206 0.7102093 -0.8940721 0.09124456 0.1876434 -1.9547465 -1.1271324 -0.122357994 -1.0712233 -0.45267102 0.36196133 1.1502923 -0.019665381 0.18895273 -0.9162135 -0.18073323 0.96211046 0.62415224 -0.26479903 0.721988 0.31719 -1.0419655 0.53568673 0.12824993 -0.9022705 -0.18333271 -0.6835951 0.14437093 -1.5583084 -0.31642738 -1.4042392 0.048749305 1.4217908 -0.19470586 -0.96992666 -1.88858 0.7312441 -0.30438194 -0.97435236 0.33158493 -0.4841429 1.0128205 -1.1244118 0.43655023 -0.29899073 -1.3606066 0.925815 -1.1989446 0.9265523 0.046995535 0.47211534 0.59379756 1.0389174 1.2752774 -0.22822429 -0.7883303 -1.4209626 1.217049 0.7074211 1.0010074 -0.010428814 -1.197885 0.4177572 0.8873127 0.7504244 0.9983524 -0.86137754 -1.7550429 0.5571267 0.5400253 0.3067175 -0.20877762 0.2951532 -0.48041028 1.2766354 0.8747307 0.2879223 -0.30646765 -0.73002285 0.26925442 0.64093757 -0.18926078 -0.40463278 1.3605964 -0.5298419 -0.28647238 -0.013652225 -1.1307149 0.632438 0.0009780667 0.6997832 -0.37119687 0.096989 1.007107 0.8909496 0.20349987
ENSP00000217131 -1.8607532 0.18839316 -1.3447009 0.7685956 -0.032875236 -0.48548362 0.841794 -0.048739385 2.5287042 1.3372139 -0.5151572 0.43944758 -1.5132419 -1.2543831 -0.2508853 0.84657294 1.6246452 0.93353415 -0.25250536 -0.8068513 -0.11054223 -1.0028291 1.7381977 0.030400213 -0.58838874 -0.02821136 0.4570382 1.0054053 1.3395064 0.5532083 0.23114851 -0.10876723 1.5106255 0.21917774 0.40281108 -1.4760016 -0.33903012 0.7108039 -0.6010707 0.6959971 0.2530771 0.45967737 -1.5323799 -1.3860259 0.17594904 -1.690587 -0.13170826 1.1323159 -0.58435166 -0.02194054 0.6755741 1.5808388 -0.26297772 0.2923206 -0.5283876 -0.42987093 0.2783499 0.98203605 -0.9504588 -1.0045189 -0.662598 -0.074069664 1.6112815 -0.9953115 -1.2428235 -0.19549087 0.67615795 -1.6033435 -0.931785 0.42121917 0.051218286 1.116044 1.2674018 1.2329226 0.69200337 1.0763882 0.8705044 -0.7438053 0.90138286 -0.64225507 -0.84471625 0.43591845 -0.66383725 0.19140042 1.6562772 -1.211877 1.1222997 -0.64865226 -1.4161252 -1.7186161 -0.059417825 0.3246915 -0.73431313 1.040385 -2.0262544 -2.2182884 -1.2567914 -0.2228868 1.1539757 -0.16519624 -0.9958778 0.50237083 -1.2879939 0.3303197 -0.47536314 -0.4653942 0.15851288 -1.3107345 1.3661995 -0.89462066 -0.58755964 -0.40271384 -0.14623834 -1.3388474 0.13860685 -0.8275993 -1.6276344 0.17817117 1.5462649 -0.5244135 -0.55432 0.027542587 -2.9803677 0.8996098 2.9407501 -0.27782705 1.4351798 0.5162859 0.19172187 0.3133045 -0.28794253 -0.5818933 -0.6542062 0.36529595 0.99856013 -0.81564164 0.45540556 -0.47941604 0.93447363 -1.4662651 -0.1416425 0.9107748 0.40919617 0.49212983 -1.6024055 -0.49782565 -0.120062865 0.36801082 -1.4135633 -0.063573174 0.41169083 0.08362674 -0.067426994 -0.5989829 0.05864251 -0.4552684 1.587786 -0.54944515 -0.5463456 0.23407476 -0.21397564 0.99014115 -0.9307191 -0.07414653 -1.1807141 -0.71253765 -0.4604534 -0.40289798 -0.28780973 1.0043124 -0.40667972 -0.87163043 -1.5219302 -0.683278 0.5527457 0.15769915 -1.5118718 1.2233472 1.1701142 0.46505442 -0.7105631 1.0559312 -0.14566782 0.74211204 0.3396867 -1.4812298 1.2424673 1.2720549 -0.7392781 -0.87414324 0.068501264 -1.1080267 0.31171373 -1.032922 -0.597151 1.0454898 -2.1089349 0.73055077 -1.4837714 1.148394
ENSP00000221114 0.13844824 -0.06361467 -0.35406163 0.662051 -0.8828851 0.6489963 -0.9807728 0.5076214 0.2598249 0.26084337 -0.034970626 -0.9856541 -0.110302165 -1.7318974 -0.053073417 -1.2899652 -0.11779146 -1.1159956 0.8914926 -1.2556022 -2.3220286 -0.28033006 0.6238362 -1.3641924 1.3096108 -1.0378819 -0.8530925 -1.0135831 -0.24847925 0.48953232 0.17881164 -0.02101763 1.5668839 -1.2816925 -0.1908558 0.93716973 -0.030233 0.70880824 -0.45588985 0.817445 1.3129911 -1.0205717 0.1170154 0.048865262 0.7885281 0.5947812 -0.44366527 -0.52792174 -0.9965657 -0.23323302 -0.3450847 0.89386904 -1.3001134 0.14927559 0.35571048 -1.7144501 -0.0055929576 -1.3124166 1.1605743 0.4339849 -0.3042607 0.067207694 0.79805434 -0.99388176 1.6343071 -1.0359968 -0.58796877 0.016038926 -1.7926644 -0.4082962 -0.075058974 -0.7328033 -0.054271784 0.5966344 -2.0875177 0.7579862 0.3964258 -0.7197129 -0.330007 1.0431216 0.5653032 0.13421188 -0.73497397 0.328862 -1.2348229 -0.83120507 -0.9631731 0.100568265 0.6000412 0.584235 0.77968997 0.7759969 -0.4130508 0.080687 -0.3839609 -0.7626995 -0.7089103 1.3504521 0.012457709 -0.004255882 -0.09709364 0.24320509 -1.0575724 -0.5939368 1.2441772 -0.36908996 0.4813517 -0.11536914 0.83930874 0.45203573 -1.8108795 0.8695288 -0.1429649 -0.25493345 -0.8260605 -0.7548786 0.8751983 -0.7540632 -0.84340596 -0.4130662 1.9312115 0.17501335 0.7374214 0.5114604 0.13074943 -0.1427896 -0.34418324 0.17845112 0.016432958 1.2489527 -0.8391117 0.101173736 -0.24381156 0.53275377 1.1273373 -0.7014438 0.47190553 0.96747345 -0.09481919 1.1150702 0.35471758 0.7978133 -0.14734039 -0.027853185 -0.529388 -0.37648824 -0.1220594 0.8316453 -0.79070604 -0.6916585 0.7725957 0.16817838 0.12689282 -0.6059295 -0.034695335 -1.2344718 -0.13188535 -0.19677451 0.48114192 0.29500344 -0.7622967 0.68466353 -0.33185422 -0.7067313 0.4883159 0.67212135 1.5164958 -0.5972735 -0.20169038 0.5579734 0.2246451 0.41282 0.6070128 -1.0171766 -1.7713603 -0.31305802 0.1437006 -0.24209629 0.3358414 -1.1943473 0.1505167 -0.90184176 -0.30306667 -1.3149221 1.1459688 -0.32488504 -0.4748781 0.34706685 -0.6251721 -0.21861872 0.42820555 0.06579991 0.5003147 -0.32470965 0.7279494 0.23951061 -1.0184426 0.0895539 0.11983606 0.24336444
ENSP00000222547 0.20980886 -0.07618519 0.52487665 -0.711929 -0.7277818 0.8036047 0.44395053 -0.66397524 -0.94181365 -0.73641455 0.91269636 1.4391394 -0.7784619 0.20924819 1.4742069 -0.15271026 -2.2170308 1.4088532 0.92213917 0.0114048235 0.08795872 0.32119295 -0.54170173 -0.33086902 -0.30441472 0.51369774 -0.23957886 0.33647174 0.32962528 -0.008389292 0.10935808 0.8925213 0.9753585 -1.0962702 -0.4812062 -0.9679693 -0.7786431 0.89639604 -0.9658992 0.44384527 -0.42479992 -0.31516072 0.94094604 0.6155622 0.087241985 0.34621084 0.5661641 -0.63033575 0.644965 -0.4138123 -0.5207582 0.47165605 -0.14470057 -0.9134786 0.56611997 0.72183746 0.07399964 -0.6928585 -0.9117895 0.21157707 -1.2128171 0.33575344 -0.49797797 -0.35142848 -0.22994973 0.95035166 -0.91563183 0.7582239 -0.6343634 -0.6504982 0.561064 -0.78001827 0.3366933 0.3410207 -0.596532 -0.48672768 0.53422743 -0.68292624 -0.40571702 0.56354207 0.095028274 0.09679233 0.3607158 -1.1742008 0.037607986 -0.5091368 -0.00079463643 0.5324514 1.3672967 0.5647473 -0.7386367 0.112460054 -0.7740608 0.67871916 -0.3804385 0.3797784 0.41154778 -0.7733446 -0.1541792 -0.5405095 0.15399371 0.83690053 0.26290584 -2.036128 0.32341903 -0.05938459 -0.14041077 0.07267084 -0.647803 -1.0863717 1.3145555 -0.5165717 -0.066728 0.52846205 1.0801624 -0.29814664 0.25434747 -1.3735768 0.2836807 0.6277303 -0.76457846 -0.26419932 -0.7463429 -0.88614947 -0.0066969343 0.5000184 1.1925199 2.0394118 0.6677583 1.0517173 0.031566918 -0.18309326 -1.6043707 0.7153448 0.121481046 0.845109 2.1529412 1.9291865 1.0717795 -0.8224959 1.0098675 1.1452949 0.5198239 0.8605218 -0.7637043 -0.33938497 -2.4353406 0.93240756 0.33556208 0.06725051 -0.7122258 -1.5183064 -0.27627423 -1.0723355 1.0439252 0.23928677 -0.10281722 -0.7090465 0.4086384 -0.47142485 0.48263377 0.058818303 0.5123313 -0.6841819 -0.059466876 0.4603994 0.9028496 0.22011653 -1.5138907 0.2687518 0.2344188 0.8675509 0.3389352 -0.6235419 0.25129914 -0.44907248 1.5838133 -0.079870395 1.2627969 -0.8372392 -1.1030972 -0.8953519 -0.9113178 0.48180923 -0.6256754 -1.5178705 -1.6716626 -0.14249371 0.16007012 -1.334221 0.99772924 -0.5515045 0.17496409 0.27172408 0.82792085 0.5128066 -0.6092738 -0.4619475 -0.92936635 -0.011075879
ENSP00000223369 -0.15212664 -0.12459706 -0.90830183 -0.036539204 -0.8056833 1.8296696 -0.61848813 -0.3936046 0.7656465 0.5419017 1.0173168 -0.4121792 0.47160897 0.5445051 -0.1416386 0.20090002 -0.119800515 -0.9316726 -0.20919734 0.49000838 -0.9336122 0.46553558 0.9103338 0.671492 -0.08183736 1.1866024 -0.5443127 -0.049097292 0.07085021 0.20502514 -0.8956992 -0.037817117 0.6156181 1.7547491 2.8109086 -1.4959849 0.59494215 1.423839 0.65741897 -0.7072544 0.7491087 0.5575553 -0.67887783 -1.0488856 -0.8060682 -0.8603562 -0.03660174 -1.9647926 -0.8875714 -1.4997157 0.49387813 0.8495094 -1.6273254 -0.14909218 -0.7753824 0.32849857 0.68692374 0.5118662 0.75307935 -0.15986481 0.32475308 0.5676096 -0.41391456 -0.0072927624 -0.20480698 -0.40393156 1.2001036 0.41217196 -1.7154639 -0.47640735 0.5394167 -0.05203957 0.4500931 -0.03607244 -0.0022191755 0.112644345 0.2739581 0.7266907 -0.36720252 -0.05992466 -1.1518689 0.0066378103 -1.3833463 1.571173 -1.5925037 -0.48893252 0.07189118 0.24919394 -0.8945864 -0.043368354 -0.6906921 0.74935806 -1.3461435 0.5699948 -0.0035606117 1.0148034 -0.99514854 0.26133677 0.7091991 -0.94704276 0.79813045 -0.9530369 -0.9352947 -2.165775 -0.2627764 -1.0872096 -0.84793466 -1.0054396 -0.37272108 -0.6500263 -1.0714246 -0.061681952 -0.381861 -0.6466834 -0.024372695 -0.24116676 1.132423 0.30126795 -0.60044587 0.17376375 -0.11155712 -1.3453691 -0.1992534 0.24562605 -0.1338336 -0.60799253 1.740304 -1.0461326 -0.2704458 -0.048380863 -0.4866564 2.204548 -0.15688436 -0.5752084 -0.06555078 0.34698987 0.04915595 0.06888537 -1.7031819 0.890708 -0.26963788 -0.6123575 0.5892009 1.1220897 -0.031437844 -0.8940038 -0.7368152 1.670311 0.29551277 -0.28633714 1.3054271 -0.4298196 -1.2646353 -0.20904739 -0.19549721 -1.2826777 0.21780202 -1.2006255 0.3416619 0.6995271 0.05654127 -0.6422672 -0.31474215 2.1930315 0.47918272 1.3777733 0.920022 -0.07955392 0.17417218 -0.021820357 -0.27869678 -0.08478325 -0.95478016 1.3620502 -0.24842592 -0.7059236 0.32460105 0.18360828 -0.014710227 0.8312493 -0.6273861 0.53188634 1.2834991 -1.3056858 0.56149805 -1.1165352 0.61140066 -0.36483088 1.1069385 -0.80379206 -0.93453807 1.0868112 -0.5897866 0.93024606 0.8777298 0.9847541 0.42932624 -0.2497441 -0.95916843 -0.20995218
ENSP00000225567 0.67835194 0.2719198 0.04675947 0.519056 0.38094985 -0.14338477 0.8106924 -0.5420928 -0.81014913 0.6914072 0.41081285 0.75032115 1.161398 0.22785458 0.45019066 0.7504333 -0.7184513 1.4538851 -1.5297239 -0.8458167 -0.5330292 -2.2320418 -0.21033858 0.25075218 -0.04423388 0.8500885 -1.1471038 -0.9817616 -1.8708519 -0.7009549 -0.29650837 0.2879116 1.917804 0.47770947 -0.05322806 1.3985432 0.19316797 0.7017319 -0.3119798 -0.079235286 0.82365394 0.32414252 -0.9349996 -1.1818302 -1.1186409 1.0419525 0.15717837 1.5593709 -0.3418539 -0.83250004 -1.7346978 -0.20929024 0.7837822 0.08026968 -1.0466009 -1.6445212 0.07465543 -0.5039109 -0.7155878 -0.9032505 1.4884018 -0.20708181 -0.40333584 0.3627436 0.19604205 0.2018333 1.8588597 -0.6467311 0.8352493 -0.169291 -0.4894608 0.3153735 0.34819475 -0.8636452 0.20346697 0.7962648 -0.6908538 0.014752476 1.1212088 0.6977149 0.786474 -0.7122608 0.26455024 -0.023292454 -0.67166615 0.50393194 0.1615902 1.242493 0.064814396 -0.7912129 -0.57540107 0.71253973 0.5641445 -1.5763942 1.1381662 -0.74079037 -0.36117965 0.054613516 -1.2382648 0.67521024 -0.86364895 0.38276917 -0.21209839 0.2951053 0.016546044 -0.41692686 -0.4922318 1.3007997 0.112567835 -0.39583746 -1.5540274 0.7183427 -0.8844334 -0.06077919 1.5187105 -0.59028614 1.3454223 1.4638736 0.058584947 -0.5955277 2.0533597 1.3041818 -1.1552454 -0.19038154 -0.21300316 -0.44337186 -0.2753506 0.44388512 1.1101489 0.29388195 -2.32233 -1.4856621 -1.6432703 0.074871205 -0.43015498 1.0426414 0.6502813 0.18349774 -0.6491559 0.42425328 -0.2854879 -3.2213442 0.7415851 -0.32820228 -1.0448216 0.592586 -1.0790062 -0.75099325 -0.0089716725 -2.2891772 0.18160178 -0.05246067 0.10251186 -0.06479031 0.29584435 0.07637109 -0.048207037 1.0568879 -0.52605104 0.021530412 -0.2883984 -0.060729492 0.9487637 -0.36303315 -0.06920129 0.081330895 -0.1786311 1.5235648 -0.42099813 0.21295023 -1.4011054 1.8279874 -0.18172413 1.9926656 -0.7932727 -0.15241212 -0.6203946 -0.1227402 -0.06694522 -1.0756606 -1.3302783 0.23613055 -0.52471304 -1.2901404 0.099541195 0.31195822 -0.9350143 -0.40493566 -0.11683088 0.55516195 -0.7434474 -0.09769732 -0.02808771 1.9123411 1.3527019 -0.5633585 0.71872014 1.0431936 -1.8508387 0.25040746
ENSP00000225724 1.0548632 0.16339168 -0.089249425 -0.27494484 -1.320103 -0.118398026 -1.787794 0.40784174 0.32473546 0.8412655 -1.1404278 -1.8560623 0.9991092 -0.19927123 0.74383837 -0.7192031 1.1947626 -0.84478384 -0.95348656 0.8270568 0.3390679 0.55053407 -1.7788095 1.3742193 -0.26525682 0.84278464 -0.61312085 0.14162326 -1.2784709 -1.5294632 0.94606274 -0.26389715 0.0057804165 1.2030956 2.2092893 1.0306661 1.0962399 0.2548175 -1.2619114 0.7622209 0.44256556 1.0679003 0.6747396 -0.53929067 -0.73863125 0.58872235 0.63827497 -0.83751345 1.175559 -0.13432269 -0.21111992 1.82349 1.6561571 -0.7720251 -0.49750668 -0.78551215 -1.102616 1.2608749 0.77150524 0.539927 -0.046820097 -0.17294343 -0.8845878 0.8039964 0.47059768 0.90614885 0.9751394 -0.6855298 -0.27072638 -0.15883613 0.74321675 0.62960607 -0.1768744 0.58055437 -0.30368662 -0.32746768 -0.8861061 0.68163353 -1.0431631 0.61046934 -0.44091353 -1.7578709 0.009142665 -0.32593828 -1.1027465 -0.954431 -0.92426556 -0.33919802 -0.42712665 0.057246763 0.6887164 -1.0404556 0.6756073 -1.4605826 1.0425979 -1.0769014 1.2870282 -0.9993706 1.379585 -1.5518918 1.0409741 0.006303421 -0.5281039 1.1051536 -0.2953031 -1.355557 0.579898 -0.5062184 -0.7746694 -0.55318284 0.34356308 0.32154983 -0.38852125 -0.4218548 -0.21927768 -0.17671783 0.8190144 0.08913879 0.14279017 0.13597861 1.3156009 -1.8127974 -0.83214015 -0.35824904 0.6171706 0.07250905 0.15164016 -0.4010463 -1.3419613 -0.6800841 -0.33682936 0.69042075 1.097604 -1.2315245 0.506961 -0.002822466 0.043340012 -0.61641455 -0.5055742 0.105475605 -0.2123186 -0.44810885 1.0832521 0.04272554 1.3042294 -0.4255104 -0.31378087 0.20284261 -0.032743353 -0.5197742 0.51470274 1.6087615 -2.6585922 1.8292087 -0.030315792 0.29590777 -0.22086309 -0.4140968 0.57825917 -0.9679832 1.203538 0.2081883 0.14890112 -0.59932446 1.1627955 -1.3558807 -0.48148918 -0.11135033 1.1819547 0.0334925 0.34326634 -1.6061192 -0.13925987 0.13634261 0.8959348 -0.32229277 0.84704006 0.03466944 0.19169103 -1.2768804 -0.6725886 -0.33014205 -0.04137176 -0.6052697 0.1364494 0.05843132 1.4078888 0.33935925 -0.08781894 0.84129214 -0.5659383 1.7497189 -0.7158284 0.7531206 -1.5742781 0.41974288 -1.9557499 1.4088867 0.06465512 0.94391346
ENSP00000227266 -0.31236294 1.0528423 0.6886235 0.48751712 -0.6610626 2.2667992 0.9179686 0.23213728 -0.035261936 0.5503672 2.5382318 0.23739511 0.9431813 1.5831718 -0.60894454 1.0806682 -1.2439907 -1.9349543 2.1294076 -0.22132604 -0.46359333 0.030425131 0.24916103 0.55773306 -0.538772 -0.6030328 -0.56780726 -0.2386344 -0.5415247 1.0022148 0.6509387 1.0561302 0.093297035 0.15702091 0.012102833 -0.93522066 -0.08604561 0.3601732 0.17075405 2.3713062 0.6821341 -1.0688756 -2.60884 -0.4811995 -0.5333211 -0.9199099 1.4943454 -0.090713106 0.17762151 0.216407 0.69830996 0.10972984 -1.6628457 -0.36881217 -1.1803432 0.2823783 -0.6015879 0.11635205 -0.9148443 -1.2794253 1.3906673 -0.71941954 0.41725707 -0.25667495 1.4491379 1.1991668 0.15768893 0.9647169 0.37940156 1.2764794 1.1953143 -1.3183622 1.1855048 -0.18994726 -0.83271456 -0.71812266 -0.4174976 0.6918859 -0.77492905 0.40651357 0.24011143 -0.11866745 -1.1491114 -0.089325935 -0.15146348 0.08799073 1.2157787 0.6697304 0.22659306 -0.19074908 0.35426673 1.2054951 -0.012105524 0.038978405 -0.5903877 -1.14733 -0.9649782 1.2955022 -0.7842147 -0.09465765 0.21549533 0.12809089 -0.67195916 0.23677386 0.22804499 -1.5164379 0.2268228 -0.521236 -1.6208252 -0.037316136 0.31749117 -0.33952448 -0.37383962 -0.48545226 1.0390232 -0.60514414 0.31213903 1.6807797 1.4975071 0.91537553 -0.5668102 -1.7628995 0.022065725 1.4827586 1.3579954 -0.243792 -0.9189525 0.26007727 2.7159913 0.08528371 -1.6113931 1.3170123 -0.28300714 -0.18947323 -0.49077055 -1.8351609 0.43247414 2.566999 -0.20248763 -0.4585345 0.44208828 -1.3607078 -0.73542976 -0.34030166 0.04504916 -0.22292878 -0.3140743 -0.3378349 0.2561889 1.3864579 1.7177923 -0.8955542 0.0016703055 -0.95123845 -0.35712153 -1.1058301 -0.34602907 -0.7229808 -0.064442486 -0.11634252 0.9442879 -1.4511315 0.7443562 -0.50273114 -0.8514737 0.046507884 -0.8532744 0.30925646 0.39297584 0.6866108 1.1930596 -1.048129 -0.105058655 -2.1626532 1.1166395 -0.0941206 0.44057834 1.2792933 -1.0449525 -1.9606576 0.59096456 0.55308723 0.0689744 0.33197528 0.11652224 0.83521307 -1.204777 -0.36675882 -0.67657155 0.95849204 0.968461 -0.79752994 -0.018320477 -0.185598 -0.23082577 -0.4662968 1.3134588 0.03527733 -0.8745833 -1.2107234
ENSP00000249923 1.0810117 -0.63244504 -0.79809016 -0.30900937 -0.6860772 -1.1172705 0.7426617 -0.09247129 0.5621568 -1.1104821 0.7009518 1.4586788 -1.2858245 -0.65585387 0.9868501 -1.3750516 1.4243057 -0.9993068 -1.581289 0.25224486 0.30235225 0.04504082 0.6987464 -0.5703179 0.42915356 0.4217421 0.57980317 0.84312296 0.8812777 0.5456415 -1.3587809 -0.51313764 0.6998305 -0.9315937 1.3000677 1.0825814 -0.11498433 -0.863563 -1.2742631 -1.1602583 1.8020955 0.38968185 -0.16343533 0.6008558 0.832046 -0.6200433 0.20686282 -0.5482356 -0.38635308 0.3374143 -0.13000555 -0.7350602 -1.2939414 -0.7964423 -0.9542132 -0.038215037 0.34272465 -0.32746282 1.1825052 -1.2026602 0.7894391 1.2135384 1.0558761 -0.50947917 -0.07701171 1.6984055 -0.36605525 0.63053113 2.2452419 -1.3253046 -0.8645818 -1.0871061 -0.15698124 1.1326385 -1.5850633 -1.0394808 -0.36816454 -1.4064928 -0.72632957 0.44321394 0.8115705 0.021092478 -2.0168276 -0.73868155 -0.32549477 -0.8873913 0.0010134041 -0.85317874 0.6629288 0.40228269 -0.2660724 -0.07076921 0.79445136 -0.6061073 0.13679843 -0.6815593 0.5351139 0.23295234 -0.051430203 -0.5564423 -0.66518015 0.10124687 0.06661503 -1.3940698 0.49320823 0.8124247 -0.45125857 -0.33465233 -0.2974838 0.35513937 0.58582455 1.0677185 0.65747464 -0.61212677 -1.2147863 -0.09234026 -0.17410749 -1.3501751 0.94293946 -0.41391927 -1.5154854 -1.6053964 1.3806225 -1.1123896 1.0379624 1.6484066 -0.00255828 0.2821849 0.9180234 0.61756504 -2.3924818 0.06234841 0.47388613 -0.042338107 -0.23962905 0.78925157 1.4343505 2.5185382 -1.057849 -1.0065252 0.6129344 -0.20616402 0.2865921 -0.37235114 0.4161557 -0.07068692 -0.739997 -0.54621416 0.022310251 1.0652871 -0.6280929 0.930546 0.9297333 -0.38590935 0.34048286 2.0981097 -0.35633603 -1.3898584 0.7678796 -1.0962639 -0.7215187 -0.663934 0.39578468 -0.62350744 1.5596542 0.47334552 -0.9894033 0.25110048 2.4722881 0.28271866 -0.24865915 -0.35672927 0.033831477 0.08692465 -0.064798884 -0.17456074 -0.3493176 2.2274482 -1.7503314 1.5042788 0.2977015 -0.78969646 -1.4449723 0.43832204 0.08547083 0.35367635 0.7885951 1.3059634 -1.810387 -0.09408047 0.4232877 1.0147822 0.42737195 0.9611895 -1.9229879 -0.041141085 0.7293199 0.16759177 0.5259733 1.8197713
ENSP00000251047 1.137415 0.23984376 -0.0700039 -1.355194 0.49034357 -0.6019443 -0.79135174 0.40651888 -0.09436746 0.5191093 0.48835683 -1.3942171 -0.48369202 1.0845184 -0.3087948 0.14357556 -0.2875718 0.57353765 -1.0114981 -0.38862547 0.32718208 -1.4910921 0.44309098 -1.9112172 0.5764796 -0.25220007 -1.6735513 0.3788822 0.7454926 0.44278467 0.43538252 0.2915733 1.0124145 0.31311092 0.3888702 0.71141356 -0.79875916 1.0708623 -0.6359658 0.41715008 -0.10447441 -1.5833778 -0.11383641 -0.40469837 0.48346135 0.7082017 -0.76938516 0.05274039 0.69495296 0.39734522 -1.4625877 -0.7101689 -0.6466622 0.874659 0.7254527 -1.187231 0.13992094 -0.41201684 1.5738424 0.19760913 0.28264496 0.4867448 -0.2538722 1.6756911 0.57019544 -1.1493714 -0.52982384 2.0597432 0.1735102 0.91656107 -0.30617765 0.50446767 -0.8227914 0.57979506 0.08500082 -0.2850075 -1.8384764 -2.6558716 -0.8066601 0.09397787 -0.0079803355 0.09103238 2.3466606 -0.8078215 -0.38166034 0.65567154 -0.15175743 -0.14185482 0.7679935 0.10792103 0.34527504 -0.86250436 0.6366194 -0.88184273 -0.56325734 -0.75962895 0.4963861 -0.6149291 1.7129133 -0.29414564 0.54784113 0.08983161 -0.87419504 0.77202547 0.07254624 -0.90756917 0.89919454 0.94556075 -0.6154677 -1.1733279 1.1342542 1.0069195 -0.007299205 0.48205173 0.68469894 1.4340086 -0.23958085 0.3573548 1.7548679 0.81162 -1.7237333 0.28786483 -0.314633 -0.08701905 -1.0093302 -1.9141854 -1.2109842 -0.58387166 -1.3140668 0.35823008 0.26723614 0.13015315 -0.096552335 -0.7188675 -0.515207 0.15194899 -0.055800345 0.8534322 0.32583943 -1.502368 1.3688483 0.73066914 -1.1927413 -0.81976044 0.8539606 -0.9765435 1.5508394 0.51436716 -0.0658682 1.9977782 -0.38434118 1.5263014 0.53519636 -0.49709883 1.4127178 -0.7274769 -1.7107717 0.8258807 -0.3608659 -0.46621567 0.853566 0.68935543 0.1368041 0.92918575 -0.55694044 1.5522287 -1.2863873 2.5357823 -0.3743768 -0.75219417 1.5872092 -2.2750654 -0.12128434 -1.6471478 0.9136353 -0.43042246 0.68397725 1.3569158 0.01956907 -0.9541737 1.898233 0.20170541 -0.20699488 1.3014574 -0.27008498 -0.24494968 -0.26094162 -0.87818813 -0.03285428 -0.9093087 0.33995742 -0.39588755 0.9798919 0.008479782 -0.5304115 0.18398996 1.19648 0.069096684 -0.84790665 0.85858655
ENSP00000254286 -0.86397505 0.5290856 -0.923944 -0.7978186 -0.34123486 -1.2724501 -1.8463355 -0.38667697 0.8653519 1.2975831 0.61282736 -0.24368659 0.43603745 0.7523612 -0.3802422 -0.67232615 1.1303259 -1.6145052 0.99780166 -0.38220072 -0.5775485 0.041142385 1.2299466 -1.6792259 0.7001052 -0.5299324 0.5773986 0.9951815 -0.03238968 1.8353235 -0.13110813 -0.67787933 -1.7522948 -1.4384987 -0.96647125 0.5814184 0.35347244 -0.3345309 0.75809085 0.3238455 0.6379486 -0.49603838 0.3351585 0.19717227 -0.32545865 0.3562821 -0.18936455 1.0393798 0.07864222 -1.2642324 0.32382768 0.13589397 -0.32227302 -0.12858577 -1.0762422 0.77891576 0.51154596 0.7201526 2.023301 -0.27785528 1.6667646 -0.32753327 0.5033722 0.0048201927 -0.29496157 -0.359313 -0.6464395 -0.4163387 -1.2147088 1.2564685 -0.8674129 0.4769932 0.73549247 -0.323369 -1.2870659 1.2450184 -0.28921548 -0.67584246 -0.3849824 0.82522243 0.54598325 0.6439048 0.788346 -1.3931135 1.5676744 -0.8944602 1.070057 0.6634907 0.96587205 0.16673191 0.530587 0.07923566 0.95218414 0.26333615 -0.2657246 -0.45690495 0.59043777 -0.31385314 0.14187 -0.15169485 -0.30479544 1.1006051 0.18479426 0.9715002 -1.253706 -1.0094918 -0.10757811 -0.89048904 0.6419469 -0.22776175 -1.1098657 0.8127014 -1.1935527 0.61471725 -0.27786916 -0.060889315 0.18723993 0.6310613 1.4322444 -1.0305723 1.5324982 -0.3682876 -0.64421105 0.6165356 -1.5376472 -1.3944386 0.051190473 -0.08281322 0.5565558 0.19818223 0.10130559 0.54732627 1.835669 -0.17388561 -0.26547408 -0.7804194 0.11773447 -0.36318377 -0.49193916 -0.22806334 1.3758914 0.6186855 -0.17868043 -1.1087236 0.23276237 -0.17437747 0.9255447 -0.9605826 0.22522573 0.098159276 -0.058316037 1.3383954 -0.4106371 0.80819494 0.9651476 -0.5753909 -1.7801316 1.3957728 0.096997544 -0.82444817 -0.14172691 -1.2507114 -2.2581558 -0.94152075 1.0022014 0.771096 -0.7267356 -0.67630625 0.3056076 -0.18467273 -1.4309331 0.62518275 0.014287899 -1.0145481 0.01445236 -0.9260407 -0.3026509 0.7910732 -1.4365731 -0.19481404 -0.53467196 0.5419631 0.6261313 0.8315254 -0.9993251 0.038817585 -0.8842972 0.11479414 -1.3599796 1.326643 0.8687074 0.09675752 -1.8923745 -0.91644007 -0.6171949 1.0941697 -1.3478204 0.66364217 0.72818017 1.2412312
ENSP00000256682 0.16659434 -0.42967126 0.8482252 -1.2840713 -0.84600323 0.788373 -0.4139811 -0.9872799 -0.39756098 0.32842663 0.15193516 0.37914008 1.4187975 0.13469128 0.7421185 -0.54627275 -0.570448 0.0024569698 1.0934625 0.003992895 -1.2891434 -0.23549591 -0.77539337 -0.65078384 0.25312015 0.57803327 -1.5934247 -0.5431958 0.5386237 -0.31039357 -0.17914419 -0.93296945 -0.5630647 0.40504354 -0.2131108 0.13015896 0.3141863 0.5057786 0.4137896 0.7253553 1.3707966 0.24558106 -0.45075193 0.006875814 -0.19963072 -1.4944608 0.5692472 -0.85254055 0.10745458 -1.0075103 0.7740094 -0.4646127 -0.272827 1.3530129 -1.7980473 -0.5509477 0.5136758 1.4318315 -1.0089386 0.22730559 1.835821 1.7245449 -0.029263297 0.29640588 0.25982338 0.16642015 1.2962935 -1.9791149 0.80640864 0.10366347 0.60253143 -1.2689202 -0.79223466 -1.4119637 1.4379486 0.6845462 -0.91460556 0.70086676 0.17605776 -0.5261439 0.14268841 0.60471964 1.0499614 -0.2549988 -0.2846705 -0.28988448 -0.16418546 0.7024752 -0.39366964 0.43190083 1.0345621 0.65009207 -0.9041068 0.3916024 0.57577455 -0.7534728 0.08717825 -0.6880351 0.80173063 -0.5423759 -0.45645314 -0.7876432 -1.7483159 1.4527618 -0.5657499 -2.0269365 0.88500464 -0.115045026 -0.22003923 2.5601134 0.24953325 0.033918403 -1.0818514 0.111658484 -0.11115234 0.28776726 -0.37870932 0.60049474 1.0125848 0.31753895 -1.4713303 0.4409931 -1.1119411 -0.7835835 1.2158264 -2.124389 0.45311707 -0.10430613 0.5536492 0.7033944 -0.23212999 0.47738415 -0.85310215 -0.85722274 0.18974155 -0.30655983 0.78055733 -0.5130009 0.20200394 -0.023562357 0.040804435 -0.03860546 -1.6878302 -0.78215736 0.107298434 -1.1763422 -0.8668171 -1.0479162 -0.39419276 -0.71496385 1.8723595 0.021348612 0.66345733 -0.053245082 -0.5077263 -0.84449077 -0.30216753 0.29756546 1.0301385 0.06502321 -1.2440151 0.76966375 -0.4340962 1.0202438 0.14806007 -0.03215274 0.2061692 0.839629 0.03593062 -0.28089234 -2.3923783 -1.0661495 -0.44390827 0.43047574 0.43327075 -2.042815 0.7187397 0.94638234 -1.2224829 -0.17515843 0.9604596 1.2695634 0.5659574 -1.6573654 0.31740996 -0.30596375 -0.04364154 -0.2875733 0.66937274 -0.5216616 0.9414998 -0.10845874 0.6913794 -1.1792352 -0.35382196 -0.6686051 -0.04846584 0.8570449 -0.7355769 -0.29816574
ENSP00000258198 -2.4301474 0.21420214 0.7721663 0.11899513 -0.68145174 -0.9089119 0.49004692 -0.7609597 0.41450936 -1.0343436 0.36632892 1.4296947 -1.1426333 -0.9964182 -0.30123815 -1.0983995 -0.6862011 -1.2437001 -0.3984278 -2.1706338 -0.87489957 -0.15143192 -1.5390874 -0.3096636 -0.22005966 0.8315381 0.38996443 -1.4250889 -0.8521509 -0.045341574 1.6963909 -0.21304329 1.0233617 0.22036755 0.6017124 -0.87743145 0.49412116 -1.0775815 -0.3195327 0.42608082 -1.3717941 -0.9443366 -0.26799294 0.064801656 0.5062797 0.37628463 0.09484987 -0.050518405 -0.79179686 -0.24662016 -1.3408103 -0.45558017 0.2860938 -0.024062004 0.59487295 0.41152138 -0.93313175 0.8750201 -1.426163 0.4924146 -0.96185136 0.8365693 -0.7198514 1.4440751 0.6125905 -1.0402616 -0.1406105 0.71209276 0.44419393 0.96466947 1.292212 0.41006148 -0.5070027 0.29515514 -1.2081648 -0.04232594 1.0264553 1.2429366 0.8509827 -1.4618001 -1.2418388 1.0100199 0.91578835 -0.4669689 -0.8195509 -0.9199526 0.27255 -0.45181337 0.7890734 -1.7687383 -0.43013301 1.5101764 -1.5041265 2.0764 -1.0595278 0.67765677 -0.09692642 0.15128808 0.55170447 -0.32642147 -0.3897833 -1.20837 -1.820297 -0.20525326 0.39372337 -0.6944602 1.0310327 1.0754188 -0.827298 -0.33265963 -0.5688045 0.6194684 1.2365746 -0.45667183 -0.35145217 0.11378664 -0.19178654 0.7466268 -0.7165368 0.015382099 0.80816436 -0.91886806 0.94960475 0.14554137 1.8354102 0.53382635 2.588604 1.3493043 1.449212 0.2945479 -0.17117451 -0.38992915 -0.0042211264 1.7729056 -1.260311 -0.48965788 -0.89784145 -0.29940334 -0.4542531 -1.0679488 -0.2420664 -0.8583358 0.34572554 0.31089985 -0.64879715 -0.582379 0.08212284 -0.41566598 1.132567 -1.1617167 -0.94976676 -0.21702957 -1.3480121 0.06637551 0.2741113 -0.4788412 0.6062789 -0.21208532 -2.1027594 -0.16405581 1.232138 -0.05486039 0.10305137 -0.5435581 -0.81744456 -0.5083592 1.630642 -1.1601955 -0.60333174 -1.2321585 -0.5952906 1.1812115 0.5692334 -0.0020885984 -0.7715544 -0.39835685 -0.32809147 1.0994536 -1.2333151 2.7962635 -0.34149998 -0.86654574 -1.0242625 0.1714189 0.91874874 0.18760447 -0.17322074 1.1494651 -0.3031574 -0.34511974 0.8225083 -0.15973592 -0.7380792 1.0733598 0.8413335 1.0649948 0.49373624 -0.25329512 0.34037635 0.0030237613
ENSP00000258654 0.7925803 0.6208474 0.5015912 -1.3837117 0.19974977 -0.14611673 -0.52480495 0.7933558 -1.2018528 0.16594312 0.70657116 0.8696884 1.4154608 0.13180378 0.29192704 -0.5417978 0.18530071 -1.4494375 0.36788407 0.73460346 0.572876 0.5886269 0.08816928 0.5151032 1.1470113 -1.3578284 -0.4196171 -0.40825886 0.28610498 -0.30382496 -0.77707076 0.34566715 2.147079 1.0757118 0.8225688 0.9080833 0.48940685 -0.36255845 -0.5826876 -1.2214637 1.7815416 0.18248193 -0.5678948 -0.44249502 0.5387204 -0.28538993 -0.08465814 -0.04215075 1.6904572 0.16413732 1.0020508 0.2018121 0.72538066 0.15175672 0.27303764 0.70686704 0.16933352 -0.14645885 1.16975 1.3867699 -0.5256792 1.3437436 0.6553315 -0.71446335 -1.00407 0.35772115 0.079257384 0.010740128 0.4309279 -0.18120037 0.46481714 0.86120135 -0.18704084 -0.6025161 -0.19435623 0.0088631455 0.43749687 0.21259974 0.1570122 -1.3981329 0.51954925 0.0036491156 1.1177964 0.087587595 -1.7663093 -1.1158794 1.7959434 0.4339518 0.30157232 0.4623732 0.11165588 0.697767 0.4147602 0.93314326 -0.6456578 -0.055711754 0.84563875 -1.2953593 0.6194191 -1.4917978 0.08216112 -0.232659 0.43551534 -1.4466892 1.3655461 0.33505604 -1.0136149 -0.9023555 0.6031822 -2.217575 1.2150859 -0.8526774 -1.9856607 0.05652 1.1068234 -0.24823911 1.6145589 -0.9240744 -1.0984789 0.43527374 -1.0680194 -0.17140914 -0.87944263 0.23721111 0.31312868 -0.61650926 1.582861 0.91958165 2.284357 -1.220868 -1.4728214 0.5127551 -0.070700884 -0.67509604 -0.07309384 -0.3139167 -0.14011563 -0.0024240648 -0.3301374 -2.1491995 -0.37013847 0.38116145 -0.72972256 -1.1855704 0.61240065 -0.24813561 0.9493769 -0.8923092 1.0332261 -1.2692618 0.46521658 0.71232855 -1.7083919 1.2361289 -0.14621618 0.6037688 -1.371269 -0.46367088 -0.06191919 0.15167007 -0.8640892 0.2834845 -0.24798913 -0.90435475 0.7689863 0.21801509 -1.8923917 -0.95324045 -0.098870695 0.4291264 -1.594205 0.7340619 -0.29939887 1.8308868 0.54808414 -0.023245223 0.055562336 1.4675372 -0.35088655 0.1222933 0.118974276 0.7648048 -0.1485083 0.9042693 1.1090786 0.37740615 0.750826 0.18343781 0.041954216 -0.6957981 0.39346805 0.5072455 0.88137037 1.4905769 1.3569596 0.3407918 2.7288728 -0.14449057 -1.6839895 0.13347079
ENSP00000258739 -0.4437141 0.15091984 -0.80832326 -1.6992899 -0.6223079 0.65149313 -0.24105337 -0.18129693 0.4539318 1.6152776 0.40206534 0.7196906 -1.6305459 -0.72540295 -0.21880837 0.43934894 -0.035020202 0.5229055 -0.008370627 0.011041486 -0.82805854 -1.2805297 1.0676044 0.65843976 -1.6782198 -0.34291938 -0.9429655 0.31923437 1.759892 1.1193708 0.7000553 -0.07068868 1.139452 0.4909059 0.65819955 -0.6015803 0.9448858 -0.48646668 -0.4799634 -0.8116644 0.067695886 -0.28334823 0.7849972 -1.0279276 1.277797 -0.26485977 -0.9567309 0.6349151 1.6299891 1.376373 -0.1316071 0.052042402 -1.087063 -0.7116036 -1.4475553 0.7683628 -1.4584026 0.6603819 -1.3961596 -1.5621492 1.0029322 -0.29803258 0.49865174 0.9624997 1.2920096 -0.3595391 -0.5431972 -1.1298662 -0.5297522 -0.78706646 0.45686927 -0.13948704 0.1430324 1.210658 0.6442174 -0.30619723 0.9301509 0.33361194 -0.32241482 0.17980699 2.5946083 0.6444371 -0.7257404 -0.08787357 -0.32540774 -0.26963195 0.40737006 1.2854401 1.064757 1.2715735 -0.45990103 -1.6389688 0.27181837 -0.47733834 0.032304652 -0.20610063 -0.060484685 -0.07796238 -0.14988764 -1.0142404 -0.13804284 0.21044128 -0.5830631 -1.2284979 0.6650909 0.3888471 -0.34191796 0.36675623 -1.0954518 -0.2023497 -0.99230546 1.5907362 0.61871976 0.43239182 -1.5412775 -0.4263901 0.6650202 -0.22707191 0.17313935 -1.2379025 0.47555143 -0.41326556 -1.4385488 -1.0339175 0.07871877 0.72813344 0.3131829 -1.0345997 0.28156912 -0.49880585 0.6322439 0.06507838 1.2397426 -1.0110198 0.02069795 0.5890368 -1.2337683 -0.76997435 1.0143161 -0.4829702 1.7432244 -0.8252061 -0.27254578 -0.058624327 1.0240887 0.22041008 0.26145154 0.6668672 0.3006902 -0.673054 1.7532752 0.10204185 -0.4833767 1.2919905 0.00821573 0.7862539 -0.18290956 -0.04629131 0.75217354 0.7722597 0.67631555 -1.3716733 0.17096694 -0.55647445 0.39062083 0.15461767 0.0021117858 0.30990517 0.120768495 -1.0390387 -0.78034985 -1.4691247 -0.07538437 0.6662862 -0.4580275 1.1848968 -0.18413402 -0.67380345 0.70409423 0.3329612 -0.8373844 -0.48606136 -0.5122403 -0.2520346 -0.15591735 -1.0794159 0.69314426 -0.19431497 0.46634665 0.974367 -0.40072432 -0.20801367 0.415958 0.06981334 -1.1722354 0.0006761274 0.8254013 -0.05896203 -0.11148198 0.6895047
ENSP00000259400 -2.244497 -1.689263 0.2045945 -0.07014231 -0.45816672 0.6878312 -0.038569685 1.184472 0.41519475 0.759486 1.2657051 0.12720445 -0.6830031 -1.1658673 -2.0855474 -0.95820653 -0.5923588 -0.025870917 1.433741 -1.1442353 -0.8344905 0.36959913 0.11758102 0.48378584 0.3275093 0.8894568 -0.5518217 0.020778833 0.0931614 -1.1737785 1.7363857 0.45946875 1.9133494 0.023143757 -0.76278096 -1.3320467 -0.874304 -0.66782945 -0.38093278 1.0622289 -0.28561893 -0.26496103 -0.029320512 0.39490548 0.09617509 -0.72835636 -0.68414634 0.92624545 1.1194544 -0.3264718 0.07082677 0.018446358 -1.9105392 0.2637296 1.4268711 0.32394397 -1.1389394 0.5491826 -2.9246304 -0.20993733 0.3839128 0.1655797 1.0685155 1.1211869 1.5159993 -0.50985605 -0.64932346 -1.7203851 -1.4909269 0.71388274 1.0431153 -0.07598221 0.26387665 -0.2285227 1.1709174 1.1862798 -0.9671329 0.14308035 -0.98684067 0.49551737 -0.13139737 0.5524869 -0.69720006 0.22000179 -0.16470695 -0.27962038 -0.41092736 -0.42539254 -1.1926455 -0.12388256 1.2259793 0.79147995 -0.41212097 0.4322655 -0.89052516 0.24722892 -1.0716857 -0.77203137 -0.055557042 0.12579396 0.14156063 -1.0642245 -1.2391294 0.43906426 -1.0305256 1.2355466 -0.30168843 0.48741052 -0.34684253 -1.3237064 0.932343 1.0137202 0.86395377 0.30293927 -0.005215384 -0.6549571 -1.8452418 0.10314863 0.37710032 -0.28048047 1.7805123 1.7273443 -1.5437702 -0.97128636 1.0559206 1.5925138 2.1601768 -0.5806156 -1.2187003 0.076985106 0.1391552 0.56489235 -0.80224276 1.442373 -0.024279317 -0.16463855 -0.5326537 -0.60204935 -0.13520305 -1.2639402 0.144308 -0.3004421 0.20633386 -0.28434318 0.1968393 -0.9572646 0.6111111 -0.17340983 -0.11349538 0.27355444 -1.7290393 -0.823028 0.53657204 -0.5013111 0.78308094 1.1891563 -0.7168168 -0.6524749 0.834387 -1.1735593 -0.9224405 -1.0167332 1.46671 0.0042927316 0.45903552 0.32714823 -1.3480428 -0.7061476 1.1518058 1.3198247 2.3377912 -0.24863103 -0.047526516 1.0985303 -0.81835985 0.070729345 1.058866 0.71811736 1.6864431 -1.4442698 0.16228177 -1.0535309 0.88295484 1.7829934 0.63768554 0.45719394 1.2328643 -0.23364018 0.5404546 -0.34028867 0.49307227 -0.2773417 0.39944664 -0.047815353 0.55830765 -1.0119559 -1.3583404 -1.0330644 -1.2071538 0.18900631
ENSP00000259632 0.90312934 0.433373 -1.8223362 0.21094672 -1.6663029 -1.2619127 1.0720013 -1.1554633 -1.275204 0.2738567 1.4787713 -1.2281791 -0.72025055 0.35059232 -2.275822 0.5509692 -0.2261665 0.70019734 -0.049108256 0.6330708 -0.28967997 -0.9681412 0.468925 -0.72984874 -0.5604302 1.0939281 -0.6544821 1.897632 -0.95352787 -0.2765136 -1.3787142 -2.3932588 0.9189152 -1.0831372 0.42432457 -0.5006925 0.62514186 1.1244261 0.54200256 1.0115899 -0.40258694 0.42750806 -0.1359314 0.1227733 -0.34352905 0.52527744 -0.22800072 1.4964758 -1.2152454 1.3432393 -0.7241583 0.26755875 -0.9165799 -0.071379356 -0.0877686 -0.4921476 -1.3559443 -0.44088098 -1.5679404 0.48104396 0.1371235 -1.0298632 0.68517804 0.72029024 1.4297825 0.3447208 -0.46096212 -0.18013646 -1.3591899 0.022295447 -0.5952216 -0.78289497 -0.16966106 -0.012363838 -1.080861 0.9615416 0.10847991 -0.40556064 0.4264096 0.17479225 0.041114338 1.6714964 -0.9205322 -1.8415455 -1.1364866 -0.9491687 0.25326005 0.18409392 -0.26167244 1.3510772 -0.99063736 -0.8202473 0.8596287 -1.4348623 0.040792048 -0.9483795 -1.280168 -0.7754037 -0.15725851 -0.81666 -0.5083543 0.45527932 0.21817908 -0.9138866 -0.95395774 -0.12525769 1.0199249 -0.5014739 0.059422486 0.015639154 -0.54604393 0.7013346 0.94491744 -1.5783067 0.27704662 -1.0236021 0.4228571 0.91017175 -0.6513412 0.3983688 1.4733372 -0.6651525 1.099616 0.4857811 0.64282537 0.013844841 0.23056392 0.20758814 0.63268644 -0.34999967 0.15315458 -0.20980778 1.0365634 -1.0500177 -0.5957047 0.8520218 -0.21537478 -1.9849056 -1.0278685 -0.2610332 -0.56199074 -0.0064441347 -0.615379 -0.46028742 -0.8771691 0.8684477 0.66375613 -0.35652474 -0.50053674 -0.7331038 1.1274282 0.26835614 -0.67204505 0.5071149 0.26878667 -1.2090769 -0.33066043 -1.2313365 -1.5699277 -0.36007568 -0.26567623 -0.13896202 1.2603606 -0.7853109 -0.14463155 0.25882307 -0.014576873 -1.6283556 0.9167095 -0.52432096 -0.47206637 -0.17514366 -0.45162305 -0.712444 0.17068881 0.30732325 -0.42025077 -0.36117005 -1.7334522 0.99354863 -0.1974705 0.69247967 -1.1655574 0.6022043 0.30265492 -0.09996679 -0.92953914 -0.23168369 1.7865114 0.2164087 1.2519325 0.9877337 -1.600147 -0.99273145 -0.27347717 -1.0209078 -0.96133953 0.6545482 1.868621 0.018620169
ENSP00000262225 0.2501028 1.3986129 -0.8723432 -1.8542188 -0.3323015 0.42606327 -0.30109856 -2.6964326 -0.790692 0.18188345 0.600377 1.0770351 -1.751558 -0.44424176 0.39047894 0.051701866 2.0172672 0.46207264 2.0333788 -0.81909394 -0.07927721 -0.8781542 -0.24497023 0.26360285 -1.8007259 -0.39046672 -2.1296506 -1.0954924 0.18462351 0.17962849 0.55767846 -0.9440587 0.033090837 -0.6849817 -0.1021552 -0.6507325 2.4014556 0.8820909 -0.799587 1.2273903 -0.122567415 0.8380342 -1.0334711 0.30035257 -0.9876568 1.1423477 -0.13494383 1.1600966 -1.4799668 -0.9071464 0.9943524 0.72656137 0.69775856 -0.58979094 -0.52394766 -0.15671508 -1.9321721 0.2605731 -1.624705 -1.5901053 -0.7752418 -1.1767974 -0.9358546 1.1571676 1.2334385 -0.97754216 0.09951456 0.3344724 0.2687323 0.4355948 1.0750626 0.15225346 0.07266459 -0.83559245 -1.0281787 0.64625573 -1.0519854 0.78010017 -0.20345287 -0.4076713 -0.6565768 -0.45623267 -0.93601775 0.9565917 0.8832243 -0.8871193 -0.6147411 0.3418723 -0.91144526 1.654047 -0.5884692 1.153127 0.98836845 0.055745225 -0.11270691 -0.26873744 0.21830212 1.1666135 0.4170824 -1.0337684 1.6887414 -0.39723966 0.11044205 -1.1589882 -1.3373652 -0.68980265 0.5465222 1.2418153 -0.07498636 -1.0860461 -0.21536213 2.026481 -0.98797536 -0.33646074 -0.38554958 0.5634153 0.87722117 -0.35712487 -0.9694266 0.42249095 -0.5362056 -0.17447343 -0.2874048 0.9462374 1.6808121 0.24336725 1.4119192 0.40963683 -0.1835999 -0.30817387 -0.00840588 0.32821864 -0.10123736 0.12984802 1.1162643 0.18943466 -0.49075398 0.96854454 0.33646718 -0.3672133 -0.7256293 -0.72671825 1.0085258 -1.0771935 -0.3226673 -2.292356 -0.70554936 -0.73718387 0.9944365 -0.28806046 1.084619 -0.21325773 0.37793308 0.9435817 -1.8311057 2.0801015 -1.3594322 -1.094341 -0.7678646 0.85643345 -0.16526644 1.2142558 0.12781945 -0.14299776 0.5166735 -0.9153917 -0.42187768 -1.1346706 -0.027674224 0.23031431 0.9478857 -0.9270818 -0.6333083 -0.61551136 -1.7132858 -1.3452363 1.1016749 -1.1827161 -1.3407027 -0.039605666 -0.7817982 -0.18952644 -1.3579534 -1.3446454 0.8333327 -0.23144604 -0.8126497 -0.55828875 -0.26278755 -0.06677323 0.40869772 0.4510002 0.5234377 -1.0741458 -1.5070796 -0.5104757 -0.43583846 0.17252237 -0.7383854 0.45297363
ENSP00000262812 0.07431471 0.65630925 0.6256602 -0.54401416 -1.3522596 -0.05146695 -0.10033129 -0.25297198 -0.048576824 -0.2512129 -0.41814864 -0.76565754 -1.4904338 0.80937326 1.9664243 1.4237738 -0.3374898 0.13174996 -1.0341823 0.19282377 -1.2425976 0.9783608 0.08327547 -1.3227476 -1.8450444 1.2241782 -1.0254807 -0.061530195 0.69524956 -1.4948705 -0.033008505 0.10930325 -0.17676118 1.2338908 0.7587986 1.0936671 -0.8305848 0.859855 0.91771317 1.2768272 0.41677746 -0.5295404 -1.5546048 -0.24060139 -0.40062073 0.9104542 0.71653366 1.0021696 -0.1835411 -0.034345955 -0.7826124 0.13979906 1.3961959 -0.13044357 0.31748208 -1.3864341 -0.54491043 2.236359 -0.5042057 -0.08199572 -0.53744876 -0.7230833 -1.4575974 -0.4504268 -1.0773356 0.7234234 -0.88142526 -0.86355263 0.47472495 0.10287911 0.6767392 0.66325974 -0.2490847 -0.7249017 -1.3933904 -0.83382547 -0.6467392 0.76757497 -1.7673595 1.3074324 -0.88346773 0.052724324 0.040372867 -1.3131653 -0.6111468 -0.5479202 -1.3551944 -0.11181021 -0.08538036 0.75246805 0.49581766 0.52953386 -0.2536625 -0.14823459 -0.4598807 0.0466468 -1.0251609 -1.1282344 -0.24009809 1.5196271 0.5736236 0.08292426 -0.64471394 -0.1316793 0.1787882 0.14675882 -0.7853101 -0.5148059 -1.1747606 -0.71350694 0.1896498 2.1754985 -0.22891876 0.1960091 -0.09584072 0.31549382 -0.47316474 -0.4628943 -1.0450232 -0.3713361 0.5546593 -0.33915356 -1.1951007 -0.44397122 1.0987543 0.83985066 0.3928905 0.89073616 -0.56537133 -0.51871073 0.030637128 -0.81313443 -0.0049749636 -0.542744 1.3597847 0.565144 -0.16925283 -0.6606733 -0.4580274 1.8547664 0.23557651 3.6676784 0.15096217 1.0039694 1.7705683 0.38666657 -0.41928044 -1.2675977 0.38242942 1.3025091 0.5110623 -0.34806955 0.08426742 0.2749601 0.6532618 0.4224343 -0.40787944 -0.9329247 0.483082 -1.2652009 -0.5229457 0.100511 0.2771313 -1.8808529 -0.17194536 0.88254195 -0.6817555 0.8533251 0.29664877 -1.093013 0.5768251 -0.6524622 -0.11770923 1.2799793 1.6735599 -1.1606021 0.8536821 -0.38437396 0.63785785 -0.32599154 -0.5751088 0.5613765 -0.5689501 0.7986239 -0.7381437 0.80369055 0.41702253 -0.87452036 -1.2924061 -0.56560475 0.063708656 1.3594041 -0.93242586 0.6298287 -0.93528175 0.40597183 -1.4652305 1.4531763 0.17762743 0.70044166
ENSP00000263168 0.36884236 1.3206874 1.7189797 0.5336578 0.597259 0.87953013 -0.8740549 -0.13535894 0.48260316 0.32519504 1.6235822 0.4783951 0.9152931 0.13672179 0.2804498 -0.058679152 -0.8801541 -0.29274923 -0.28671414 -0.27441943 0.26390192 0.43410102 -0.19780628 0.5618441 -2.0630186 0.33098894 -1.5117421 1.8651869 -0.4293258 0.73011947 -0.43684053 1.807818 -1.6427625 -0.18585274 1.0775245 -1.6234674 -1.3308053 -0.9663148 -2.5391169 0.22277609 -1.3546485 0.20225519 0.24554478 1.7392136 -0.65489286 -0.409601 1.0709281 -0.31799945 0.23285526 0.94853115 0.7429116 -0.8410185 -1.0955902 0.7045482 0.28024116 0.88727516 -0.18124388 -0.039242662 -0.07258039 -0.18515062 0.6306811 -0.73315054 0.5653339 -0.9411644 1.2219309 1.6656162 -0.19819604 0.87925094 0.23415828 0.7770466 0.09755702 0.004509085 0.65507656 0.21965595 -1.5767171 -0.0068556084 -0.62889254 -0.7492784 -0.34371182 0.9306248 0.5710449 1.4951884 -0.06022883 0.69430596 1.2376039 0.9291756 0.03993359 0.79601836 1.284186 1.3005964 -1.4009584 -0.47194704 0.2170915 -1.1915298 -0.39452782 -0.90387905 1.3983729 0.5664899 0.41910243 -0.08578175 -0.4356219 -0.6870501 -0.8048446 -0.21832567 0.73410195 -0.3865355 0.9425403 -0.016331226 0.085612394 -0.23966816 -1.2514162 -0.377062 0.27607423 0.56697696 0.16104664 -0.4143911 -1.7200538 -1.2688808 0.57995576 -1.2455199 0.7000356 0.42645606 0.18950544 -0.9462827 -0.60499 -0.588428 0.42519674 -0.8519542 0.10433133 0.98289514 1.3473965 0.35762668 -1.355724 -1.6225611 2.0131888 -1.0198495 0.9770474 0.55276394 0.53425413 -0.3422934 -1.1059415 0.63805246 -0.52447385 1.5097646 0.4116478 -0.54337555 0.5096502 1.7382827 0.9988758 0.1744801 -0.6207042 -0.94021076 0.91226643 -1.4443988 -0.16468222 -0.10747397 0.3334783 -0.07487025 0.65298617 -0.663349 0.16706727 0.49072796 0.96600205 -0.39863217 -0.35041112 -0.23201439 -2.5336504 0.9565196 0.08321728 0.67146045 1.967098 1.0226618 -0.5649617 0.99187905 1.0717145 0.23690496 0.21131906 -0.48938566 0.9353133 -0.74568343 -0.027671164 -0.22632656 -0.68854916 0.6045633 -0.7057969 0.81162757 -0.7909978 -0.30679566 0.10268254 0.32298446 -0.22197233 -1.6768416 0.37908363 0.048623566 1.0553327 0.4012342 0.42644957 -0.0012919374 -0.4044585 0.4946559
ENSP00000263245 0.36410064 0.3327885 0.5442841 0.08018806 2.4997985 0.80910975 -0.09518316 0.553428 1.871354 0.2696902 -0.22531672 -0.16322179 -0.5191519 -1.1610029 -1.7119492 -0.21082565 -0.1135026 -0.50896025 1.1778992 -0.85903156 -1.8994901 0.34623381 0.95563847 -0.3169594 0.14142458 0.8912372 -0.6818497 -2.152319 1.0588561 1.1791451 -0.9127641 -0.15675712 0.4156589 0.47934112 -0.25783217 -0.5666029 -0.7230229 -1.5682186 -0.47424567 -0.7875177 -0.19732526 -0.021705857 0.83678365 0.06642993 -0.41253808 -0.54627323 -0.17849603 -0.16668959 -0.5097525 0.6384489 -0.1708756 -0.27155888 -0.9310505 -0.62865585 1.1623347 -0.3432154 -1.1928009 -0.16502453 0.7385509 -0.045653906 -0.8320441 0.04833222 0.051228233 -0.43924937 0.6470804 -1.3842762 -0.05742229 -1.1505038 0.9563973 -0.07302103 -0.7987124 -0.58287716 -0.84935766 0.4531482 -1.3342656 0.32868356 0.6764421 -0.4068766 0.11175644 0.6379381 -0.16982755 0.28058353 -0.17088673 -0.034069356 -0.5869808 1.1206523 1.0378201 0.65534204 0.06484776 1.9244738 -0.66526014 -0.47482613 0.36723596 1.2150571 -0.46586332 1.7904487 -1.6517333 -0.34891766 -1.6994911 -0.8900597 -0.48276988 0.44789943 -0.9350123 -0.30478588 -1.0658605 0.02920216 0.88548577 1.0353615 -0.7327493 0.8945403 0.19938828 -0.49561492 0.5623616 -0.58661574 -0.914776 -0.20293717 -0.28401652 -0.22362731 0.5462847 -1.215191 0.52722996 -0.46966702 -0.04563654 0.15673599 -0.67063046 0.70760375 1.1209675 -0.11326755 -0.80483043 2.1039736 0.6504233 0.34565952 0.021386955 -0.17888673 0.29498616 0.53018886 -0.43351918 1.0704486 -0.50253224 -1.6095021 -0.23763964 0.7330803 0.31825733 0.5833949 -0.35791346 0.30506626 -0.55744916 1.0135003 1.0083457 -0.4473864 -0.55425125 0.09269607 0.3126208 0.22781092 1.6662531 0.2089505 -1.0326505 -0.6671936 -0.24890575 -0.49164045 -1.0184138 -1.2532736 0.28108135 -0.91105634 0.3763848 0.5730765 0.037565727 -0.45291835 -0.10464721 -0.09689482 1.5490744 -0.20441921 0.52849436 -1.376501 0.41109085 0.11709318 0.03670955 0.45159024 0.63713974 -0.79965913 0.2754801 0.11707179 0.4122179 0.62253165 -0.9563238 -0.61841697 1.5154221 -0.6088117 -0.65938616 -0.25362962 0.3445006 0.84502953 0.72826356 -0.58909935 0.44549665 -0.14987203 -0.12953353 -0.39982045 -1.165914 -0.11761047
ENSP00000263354 -0.420896 0.9503941 0.62244356 -0.254896 -0.36279783 0.06459889 -0.15080324 -1.48685 -0.13698635 1.6152985 -0.093887575 0.13255428 -1.0422279 -0.0019855655 -0.67753816 -0.53319925 0.57758266 1.0311596 1.7023467 -0.46211165 -1.2868922 -0.34342942 1.022042 -2.0336938 0.47512835 1.7074835 0.9866045 0.7579497 1.0757647 1.6789228 0.71155757 0.5649963 0.70483416 -1.3301029 2.4632075 -0.11801602 -0.5645025 0.6490112 0.67337793 -0.70532167 0.74427664 0.5719534 1.476896 1.2632378 -0.12615299 0.6032816 0.28172946 1.1921821 -0.11428169 0.07992467 -0.46544698 -0.14361446 0.523408 -1.3403064 -0.44558668 0.9423612 0.58136845 0.92425317 -0.05661997 -0.12847565 -0.7840854 0.5695064 0.21386482 -0.08767457 -0.3310774 -0.43710864 -0.92941433 0.9445592 -1.7506459 1.1353027 -0.20826742 -0.07117131 0.6144182 -0.2377064 1.4750623 0.3421673 -1.9898702 0.801458 -0.8812632 0.28039894 -0.5304564 -1.2121749 0.7716207 -0.34859225 0.6149975 0.5817938 -0.21926522 0.9596438 -0.12773538 -0.25783125 0.5819602 0.6680057 0.31957906 0.17877677 0.6545761 -0.6292054 -1.7998495 -1.2764753 1.2559862 0.062948234 -0.18669666 -0.53800565 0.11502191 -0.26075965 -0.21464674 0.36074245 0.99312526 -0.80092746 -1.0989187 -0.61547047 -0.28624287 1.230769 -1.0389034 -0.24220265 -0.4667201 0.23479708 -0.27023882 0.8265197 -0.8612833 -0.09426306 0.11303599 0.7322261 0.69448054 1.2584455 -0.08029061 -0.1884933 -0.252951 1.0075788 0.027934514 -0.13545613 -0.3262732 -0.84134007 0.12511139 0.10374572 0.35854053 -0.04484223 1.4993297 -1.1244503 0.7124391 -1.1125365 0.6717406 0.9325507 0.7888609 -0.52382857 -1.6739513 -0.32632208 -0.9552863 -1.1562098 0.3136454 -0.7046045 0.5219485 1.7234284 -0.7591583 -1.0386206 -2.064146 -0.68250585 0.132354 1.6622978 0.7610451 -0.77753174 0.14081626 0.63132054 -0.24391152 -0.6091136 -1.2358993 -0.1921345 -0.97398597 0.56416434 0.18902385 1.2740387 -1.286806 -0.5053767 -0.29348537 0.5073418 0.0488687 0.613516 -2.3705611 0.45313588 1.6709942 -0.90939426 -0.48758224 0.88469285 1.653969 0.98198575 -1.6732599 0.08130985 -0.41838485 0.18676367 -0.42150685 -0.47944823 1.6161684 0.6069834 -1.2020056 1.4539615 -0.44819283 0.06520417 0.5978608 0.19384438 1.1252617 -0.44314408
ENSP00000263373 -0.2253232 -0.9370137 1.3638037 -0.055101477 1.2263205 -0.78945875 -0.46930283 -0.7617434 -0.2775963 0.24938221 -0.61539847 -0.23942511 0.62206465 2.796407 -1.4765521 -0.11039908 0.50021183 0.44988203 -0.10952313 1.0533848 0.61980605 1.4629542 -0.94358844 -1.4196863 -0.31818563 -1.4280914 -1.4963546 0.9791892 1.2113768 -0.8069939 0.7224497 -0.38665986 0.77843463 0.89433104 0.21777926 -0.8228037 0.9945534 0.3661544 -0.34401944 -0.11103359 0.62614566 -2.1125433 -0.071814544 -0.3642773 0.59408295 -1.0865092 -0.47624093 -0.9971626 0.53754574 0.2695444 -1.2806183 0.27481872 -0.16990705 -0.8792626 2.3230302 0.5173143 0.027295664 -0.35435748 -0.70513934 -1.7151518 0.0434046 -0.2761851 -0.7561064 0.07614336 -0.6805513 0.8135198 -0.10073567 -0.16619456 -0.99762356 1.3327761 -1.0463073 -0.31473404 -0.554374 -0.67815477 -0.028159756 -0.050892696 -0.47030044 -0.30700347 -0.49860162 1.3091495 -0.2749602 1.6978614 1.5968531 -0.68057996 -0.5595794 -0.9585054 0.2381101 -0.7339123 -0.49195668 -0.59523624 -0.9011659 1.1273456 0.11988943 -1.0149593 0.29673415 1.787459 -0.5125385 1.9423138 0.29663268 0.21784168 0.41366804 -0.9703358 -1.1591932 -0.8272026 -1.6974472 -1.6463767 1.4607006 -1.0173876 -0.34738335 -1.0869824 0.34912512 0.56493056 -0.8846723 0.29976687 0.6543987 -0.0994259 0.5021041 1.1709243 0.1272276 0.0135622015 0.041821867 -0.2639272 -0.26271573 -0.49195153 -0.15686335 -0.8958524 0.6595704 -0.52190363 0.15656048 0.47745198 -0.60392284 1.7239057 0.78814954 -1.0671974 1.1917081 -0.6883988 -0.39221996 1.7190723 -0.51297253 0.084212855 -1.0602989 0.8687938 -0.08264751 -1.4844865 0.029612947 1.0820538 1.9176656 0.37055698 0.29599166 -0.740633 -0.12062118 1.7474877 0.09041433 0.14530243 0.60178524 -0.09042842 -1.0766116 -0.62429816 -0.042430185 0.1588952 1.5224779 0.26913613 -0.75034505 0.70579433 0.26123947 -1.2591186 -0.3111887 -0.20274417 0.240022 -0.73344934 0.14688304 0.13483287 -0.9111326 0.8920525 0.36079958 -1.62272 0.2986362 2.3229764 1.4498831 -0.9716434 -1.1150731 0.23455197 0.10737141 1.1770995 0.90132016 -1.3350399 1.6203226 -1.0456843 0.54032785 0.49037752 -1.2130711 0.5418528 0.35939345 1.2972287 -0.9355523 1.2757481 0.4843682 -0.014245274 -1.1278806 -1.3577423
ENSP00000264028 -0.39266354 -0.30674613 0.713324 -1.4960282 -0.16249031 0.26674965 0.66986114 0.28068325 0.2390266 0.6920326 -1.3928753 0.30840024 0.62191665 -0.008807286 -1.6343288 -3.403332 -2.110355 0.34752277 -0.2555779 0.077145256 0.5618369 0.19352813 -0.114900015 0.25788498 -0.15075928 0.4155153 -0.32902515 0.71257067 -1.6700287 0.42566812 -0.37562215 -0.12239719 0.92709816 0.6401537 -1.2967768 2.0600257 -1.8955699 -0.17566684 0.03754731 -0.83520746 -0.9801156 0.17013136 0.8603486 -0.86774516 0.5447537 -0.53810674 -0.48890278 0.35717535 0.13493222 0.8076245 -0.60351926 -1.5812367 -0.33634397 0.07837141 0.084748544 1.0664645 -0.19286714 0.11201685 0.5723639 0.80788916 1.3342142 0.11558269 -0.0053069117 0.795466 0.88877916 0.22139405 -0.68516785 -0.46942732 -0.7484508 0.25918424 0.7573657 0.500762 0.8014661 -0.08517874 0.061672095 0.91682225 0.21344122 -0.43843538 0.91467494 0.25308892 -0.2096143 0.9733611 0.6872345 1.8136191 1.1859456 0.52456784 -2.2696478 -0.14242852 -0.056988902 0.9155089 1.4979221 -0.14201431 0.022356672 -1.4285358 0.08051897 1.2657126 -0.11478301 -0.6270884 -1.0536147 -0.97455174 0.07601645 -0.54916817 -1.2333226 0.53168696 0.56798106 -1.0145394 -1.3063148 0.18735409 1.2818167 -0.44285604 -0.3491921 0.8122829 -0.20229146 0.47073364 0.067772806 0.26546338 1.4555017 -3.3071234 -0.44112152 -1.0761188 2.4104776 -1.0127907 0.5484135 -0.62098944 0.868844 0.6311072 0.18527757 -1.232378 -0.8046373 0.005122376 -0.12554576 -1.2607214 1.5920802 0.035612177 -0.789563 -1.418194 1.0507704 -1.789805 -0.07520774 -0.903843 -0.66941917 -1.541468 0.7281654 0.22572026 0.41689596 -0.9619874 -0.931493 -0.601751 0.9294931 -0.70277095 -0.1692571 -0.035338014 0.015486521 -0.5723095 -0.51516825 -1.1238402 -0.61697805 1.1602515 2.1064472 -1.9924531 -1.1454693 -0.81701463 0.22787227 -0.67323655 0.5503798 1.3564593 -0.9156587 0.36147195 1.2511126 -1.8239508 1.124539 2.0350647 -0.72097266 1.800652 -0.45718437 -0.28953558 -0.4837583 1.2817023 -0.41201603 0.52303004 -0.29377386 0.20769241 -0.21467203 -0.94972694 -1.3919019 0.0045634783 1.2955532 0.42637587 1.6221011 -0.9609786 -0.245548 0.06633604 -0.41713145 0.3757812 0.22927476 -0.65334517 0.110661045 0.39592186 0.22174281 0.5137787
ENSP00000264454 0.029860409 0.2710103 1.2673731 -1.2685461 0.09572458 -0.88336134 -0.20217419 -0.42647338 0.041043296 0.040397108 1.1875316 -0.90464616 0.08654557 0.98987865 -1.5815783 -0.022546439 0.9765751 0.64585966 -0.8204866 0.41007385 0.7457271 1.5429666 0.35243717 -0.6068233 -0.50561625 -0.26187736 -1.0666417 1.3065073 -0.040128145 -1.520295 -0.5962362 1.969841 0.91016203 0.3675055 1.5830998 -0.899602 0.67075944 -0.87943155 0.15199845 0.70527345 -0.15819411 -0.35201463 -0.32739577 1.1653645 0.5314089 0.47198227 1.0141122 0.20990814 0.692666 0.3935994 1.2086447 -0.44878092 -0.3025945 1.0396851 0.105117135 -0.09446927 -0.81510454 -0.39859268 1.146188 -0.7624345 0.9201657 -0.41901726 1.7739313 0.094685584 0.55980617 0.89537644 -0.40591908 0.6616781 -0.27871612 -0.065044954 -0.6551948 0.02552119 -0.564472 1.2701298 0.51917064 -0.22246546 -1.8448534 -0.43165714 1.3631567 0.50460094 -0.30754873 -0.5681654 -0.3980195 1.1967866 0.58069384 0.5102259 0.1259766 -0.6431489 -0.5389433 0.24808803 0.8368262 -0.098668866 -1.2441123 0.38860074 -0.6982209 0.015010439 0.05868273 1.2254329 0.9339492 2.0156338 -0.14640392 -0.6182162 -1.1292866 -0.562539 -0.67300236 0.39983138 0.84458506 0.63805324 1.5220141 -1.6286145 -0.18095323 1.514584 -0.6578563 0.13217439 0.33613402 -0.181542 -0.5176529 0.17341319 -0.5428177 -1.259043 -0.29522464 -0.5759686 -0.23927559 0.13502575 0.37296927 -0.812233 -0.6034364 -0.012692874 0.4286115 -1.1533402 0.315375 -0.6037518 -1.3505229 1.7183033 -0.71265817 1.1096241 -0.45726806 0.20046072 0.41438672 -0.20047356 1.1275476 -0.6478569 -1.1516613 0.3437255 -0.5951527 -1.488507 -0.602485 -1.3562057 1.0322701 -1.2285419 1.1748894 -0.70435506 0.76123655 0.83179957 1.4769609 0.20992269 -0.8088636 -0.21066338 -0.21747811 0.39550602 -1.0444506 0.5007905 -0.43093947 0.7405823 -0.5142328 0.21824785 0.5554998 0.8406244 -0.7727726 -1.031878 0.2641164 0.544821 -0.9067219 0.5797244 -1.7647961 -0.6380386 0.900516 0.7984882 -0.17585358 -0.7866711 0.5575645 -1.1433474 0.51829386 0.50680524 -0.3126575 0.60947305 1.4123168 -1.6851083 0.72244376 0.16099389 1.4464006 0.85462755 -0.2607176 0.61544806 -0.55496526 0.4709786 -0.02521211 -1.0581803 0.3241959 -0.7692009
ENSP00000265709 -0.5872614 0.8160317 1.0080928 -0.15899922 -0.24880108 0.82325035 -0.3069188 0.07143034 -0.095156066 1.5921671 0.55009824 0.1919687 0.68599904 0.056167822 -0.91255885 0.63574183 -0.9125967 0.48278883 -0.94280136 -0.42835858 0.7095771 0.29550448 0.22317317 0.6551541 0.134667 -1.4846106 0.8085422 0.35247204 0.78022575 -0.85606575 0.9947627 1.0698534 -1.1220047 -0.4755026 1.7076304 0.45425913 0.3840943 1.2495059 0.56431067 -0.080626234 0.20659927 -1.2123549 -1.2203898 0.37100744 0.069527306 1.2352233 0.68174475 0.9533552 0.12852532 0.17598431 1.8746295 -1.02522 0.65833324 0.31463927 0.19046159 0.5490091 -1.1000588 -0.760892 -0.8058421 -0.45845094 0.7976074 0.7812799 0.11108792 0.53110284 -0.5116026 0.80424255 -0.50018215 -0.5079469 -0.21721342 -0.10944333 0.07520298 0.73142326 1.6144378 0.77058166 -1.5029056 -0.022718856 -0.44606957 0.099939846 -0.40556294 -0.72843575 0.1589209 0.062153295 0.0706961 -0.5424648 0.4822371 -0.060529754 -0.783591 1.0001239 0.5453349 0.8080475 0.5481477 -0.09745831 0.12854536 0.2605296 1.1911168 1.4860219 -0.6114261 0.75299484 -0.717495 -0.20969412 -1.2466654 0.74689204 -1.1132158 -0.6110533 0.22714424 -1.1472111 -1.0181651 -0.18696098 0.5754793 -0.61385524 -1.3527592 0.56885177 -0.78898317 0.762727 0.5507359 -1.4506624 -0.5962533 0.3053102 1.7551826 0.39090535 0.6564036 1.1616894 0.77579 0.12896764 0.0031710118 0.35431787 0.48610485 0.40110156 -0.4345596 -0.051298276 -1.8717909 0.6750629 -0.025750779 -0.4614314 0.7196206 1.4983637 0.38627848 -0.116235815 -2.2098584 -0.23464258 -0.47850156 -0.23558891 -0.6087744 0.4615464 -0.21048206 -0.17543294 0.12340041 -0.32327756 -0.015241918 -1.7207452 0.56650615 -1.1615359 1.537025 -0.1158343 -2.072952 -1.355308 0.23203194 -0.10973542 0.5068562 -0.119462214 -1.2371585 0.5300652 -0.6898044 -0.5184362 -0.32446414 0.57908684 -0.20597826 0.15708396 -0.8350124 0.25518373 0.31758565 -1.181972 -0.69695824 -0.5034092 0.23737685 0.103163175 0.081450075 0.52233696 0.041693985 0.7001084 -1.1682297 -0.70903915 -0.3555803 1.067047 -0.16503125 -0.9931757 -0.45585296 -1.2337525 0.9737695 0.021168798 0.5686013 -1.0758029 -1.3689343 -0.09368815 1.2282503 0.6750191 0.6733066 0.24081299 -0.38563573 -0.9283661
ENSP00000266025 0.5339311 -0.55251026 0.84948516 -1.5613638 -0.14749545 -1.4272583 -0.9568605 -0.83347636 -0.5193897 0.32103673 0.5011181 -0.9512599 -1.7444508 -1.2638736 -0.94507366 -0.24985427 0.26084667 -0.058901876 -0.15226364 -1.8209224 -0.7167258 -0.94659656 -0.14940685 -0.7523595 -0.26071948 0.67860997 -0.1659028 0.093934864 -0.3064225 -2.2506077 -0.14144443 0.5383497 -1.1857617 -0.86123186 1.2523651 1.022592 0.86987716 1.1799076 0.47336403 0.01653264 0.9898874 -0.10655267 -1.1865714 -1.214705 0.99006474 -1.3857241 -0.55589604 -1.8775095 -0.14529848 1.1005567 0.28296876 0.38947725 -0.15495177 1.0723901 -0.26290718 -0.8800349 -0.82521224 -0.044765137 -0.14832972 -0.35009682 -0.28906277 -0.99232113 -1.0146483 1.7503352 0.79111254 0.44543815 0.092326134 -0.59660393 0.9342645 -1.056204 0.0752689 1.2021397 0.32300717 0.29679275 -0.62504405 0.25679162 0.47741216 0.91134125 -0.28031325 -0.34368527 -0.18501881 0.48293373 -0.44097218 1.5555847 0.7149945 -1.1896973 -0.96785235 0.63190657 1.8734636 -0.6312356 -0.40233502 0.70286965 0.3121774 -0.7736343 0.64935046 -0.17326304 0.3450049 0.8747054 1.1011851 -0.7828452 -1.4594063 -1.2858576 1.6170974 -0.31806916 0.90263474 -0.38967007 -0.65046453 0.0516672 -1.3401622 0.22714877 0.3689795 -1.1847597 1.5521225 -0.14790837 -0.74789953 -1.2087164 0.7510067 1.3146026 0.49093622 -0.9543954 0.51974916 0.23431522 1.084216 0.6384316 -0.44999328 -1.4771551 -0.6640441 -0.06635903 0.23198898 0.24178484 -2.5109055 0.968254 -0.32683152 -0.2569465 0.38616872 0.6337253 0.74241805 0.62471914 -1.1409186 1.100488 -0.3641647 0.3240251 -0.65374887 -0.7267287 -1.0006891 -0.12121269 -0.4701816 -1.3895851 0.22236232 -1.2853951 1.1205342 -0.8269464 0.94100606 -0.39094785 0.81400776 -0.38076058 0.13241775 -1.0279274 -0.49675825 -1.0507907 -0.3432916 -1.0428487 -0.6233499 -1.3742734 -0.2969856 0.6913875 1.9682592 0.81450564 0.25878674 -0.36867845 -2.0463045 0.05216268 -1.770423 -0.68087447 -0.7049969 -0.6328307 -1.0304016 0.75055826 -0.81865394 0.62927794 -0.44056624 -0.3838917 -1.156994 -1.6485169 1.1509962 0.98224765 -0.21536651 -0.17005679 -0.43547583 0.6442013 0.4634321 0.75601494 -1.4391834 -0.015229984 -0.7754913 0.37713143 -0.36577985 0.4644867 0.018216534 0.95141596
ENSP00000272133 1.3731359 -0.13783208 0.5759234 -0.46083415 -1.6309274 -0.6768438 -1.9334332 0.37493262 -0.51573694 -0.4005929 -0.9738969 -1.1012156 1.652182 0.064313956 -0.46119127 0.045749858 0.91614336 0.46598747 -0.07009632 0.32709938 0.97669876 0.12476652 1.5984007 -0.24707898 -1.3534731 0.31821078 1.2608894 0.81621194 0.08572859 -0.27777213 -0.0057221153 0.5885954 -0.65979064 -0.20403369 -0.16072261 0.47490174 -1.0962695 -1.2053086 -1.3484814 -0.6529201 -1.7429721 0.5792276 0.9584027 0.3423852 0.16678426 1.1722466 0.7037476 -0.51486194 -0.24194254 -0.34379318 0.5569903 0.006387389 -0.2554998 -0.8055783 -0.542037 -0.58243483 3.0670314 0.87180036 -1.0197527 -0.7041446 0.005873449 -1.373432 -1.1655188 0.9978861 1.4198055 -0.5722553 -0.12963103 -0.34046358 -0.5912614 0.63288414 -0.035996396 0.049809042 -0.12886406 0.57827836 -0.7434464 0.60941494 0.097926915 1.642427 -0.020672794 0.22496603 -1.102849 -0.55803376 -0.6420744 1.4111594 -0.8725114 0.14869541 0.04263625 0.6917742 0.89199764 0.56018573 -0.24449636 -0.07938968 0.5414485 0.102519944 -0.23607852 -0.26794782 -0.42995262 -1.0678363 1.9434313 1.116215 1.6297649 0.3688469 -0.35647106 1.0231719 0.21454853 -0.010552604 2.6481996 -0.08814362 -1.8683321 -1.1166002 -0.55042267 1.6400758 0.18876971 -0.8665243 0.9444383 0.23733841 -0.41591826 0.31037676 0.3063542 -0.35127687 -0.09021444 -0.47011417 -1.7383991 1.2899201 -0.41411695 0.04885426 1.3390774 0.17835702 0.7559253 1.0995271 -0.27340588 -1.6138422 0.58194727 1.7224681 -0.70414186 1.9671178 -1.3390479 -1.380959 0.7287129 -0.51161355 2.070828 -0.32045174 0.039125517 1.6782339 0.38728982 0.3538995 0.41536307 0.50599045 2.3518991 0.8002899 -0.07556838 0.5856805 0.47512814 -0.25405094 0.11650899 -0.0928553 -2.1617203 0.11394424 -0.36815736 -0.88958 1.3939562 -1.8864108 -0.32032046 0.4228207 -0.57368517 0.50752926 1.553778 -0.3104436 -0.086703144 -0.27855358 -0.17664921 1.7690662 -0.4862654 1.152489 -0.27305567 -0.33347693 1.0544803 0.44545463 1.2125324 0.35954547 -0.016820638 0.14414898 2.1509142 -0.7873612 -0.4647863 -0.08060311 -0.30401936 -0.25538707 1.1671064 -0.4267626 -1.9811087 0.7161085 -0.80114216 -0.037827674 -1.6205727 0.6604048 0.26727983 -0.52661264 0.7132101 -0.53779143
ENSP00000273130 0.06837814 -0.56378 -0.99369514 1.3362793 0.69008005 -0.9807299 0.166202 0.22590375 -0.19512247 1.344817 1.3468273 -1.2319531 0.8386868 -0.7197033 1.2356812 -0.07232325 0.8061189 0.462865 -0.09061333 0.46318117 -0.09062415 -0.04953155 0.91518277 -0.7958214 0.5475207 1.1085337 0.52084255 0.43592057 0.3973766 0.51516813 -0.8013218 0.5516389 -0.17494862 -0.80495137 -0.23264006 0.5616314 -0.47353795 -0.16456178 0.7630908 -1.0587975 0.025261397 -0.44111744 1.5147569 0.023442168 -0.8657802 -0.5013904 -0.20026441 -1.07548 0.2530219 0.46296376 -0.10233954 -0.33565223 0.65421194 0.05961968 -0.056958087 -0.8452778 -0.1444769 0.7787654 -0.058807075 1.3654954 -0.22385563 -0.27718863 -0.05027353 -0.31177425 0.2609097 -1.331698 0.23360918 1.1142088 0.22397406 -0.10243179 0.64248735 1.1328348 0.41363162 -0.7504477 -3.364037 -0.21858914 0.5916327 0.03842614 -2.5156085 1.5717208 -0.8100659 -2.0528524 0.13319431 0.43583086 0.062236667 0.6183344 -0.29406306 -1.3814853 0.017398356 0.3588198 -0.7214215 0.09271248 -0.18625714 0.39127287 -1.7638779 0.21570928 -1.9404685 -0.4613292 -0.6153424 -0.68877995 0.37376422 0.403594 -0.48983797 -0.709119 -0.0406556 -0.011779402 -1.0619329 1.1506388 0.033125106 0.597015 -1.8611242 -0.46424386 0.08656018 0.12796764 -1.0715159 -0.25550085 0.13470873 -0.01338517 0.7043606 -1.1556512 -0.52892405 0.5776763 1.3028926 -0.72939533 1.924613 -0.60343957 1.2623835 0.8239339 -1.4923009 -0.44480467 0.13492948 0.32381418 -0.687329 -0.019733483 -0.064488865 0.35620993 0.8875914 0.2530599 0.06333887 -1.0240889 1.035195 -0.7891455 0.7596131 1.7033174 -1.6891893 -0.3147656 0.23481849 0.05953732 -0.71408945 -2.5423565 0.093672454 0.59530544 -0.93726337 -0.98077124 -0.35795876 0.26046923 0.24882294 -0.034644134 -0.3464639 -0.13112515 0.5692799 0.23070629 1.0010109 0.16844533 1.5885895 0.28036332 -1.045916 0.18108204 -1.7107599 0.2747491 1.1847245 0.6635935 -1.4470019 -0.30938366 -0.5949362 -0.72039145 -0.50495976 0.26112443 1.5207472 -0.6115938 -0.1406658 -0.4925171 0.59408665 -0.88281894 -0.26294217 -2.3381214 0.071527846 0.4620786 1.655028 -0.44153464 0.6524417 0.6962816 -0.98983014 0.84011567 -0.12355778 0.44221982 1.0542504 -0.37843814 0.2697626 -1.5077189
ENSP00000280551 0.019281046 1.452579 0.2680147 1.0772913 -1.2197267 -0.8197975 0.33052862 -1.5532547 -0.23891048 0.20604596 1.2264655 -0.179329 -1.2037295 -0.47933006 -0.083902344 -0.33829144 0.03185094 -0.8881046 -0.8294686 -0.40356612 -1.7828411 -0.24981487 0.22589289 -0.83294094 0.7698422 -0.38425797 -0.25450137 -0.96499807 -0.4526042 -0.018016096 1.0565791 0.7390219 -0.49482852 -0.7471881 0.57856464 0.14964576 -0.8888157 -0.81734 -0.5349835 -1.1634413 -1.0583463 -0.79529166 -0.2036062 0.6921911 -0.98042876 -0.33111447 1.7431803 1.5285959 -0.36507523 0.019527031 0.02403845 -0.1257838 -1.7892746 0.55134773 -0.62067723 1.149965 1.007548 -1.3831298 -0.30460858 0.25915435 0.39246893 0.37230572 -0.08101101 0.7742771 1.5519565 0.75719845 -1.8796456 -1.3891146 0.54292 0.9075117 -1.599432 -0.32065633 -0.23160286 -0.0045641162 2.1324818 0.50611985 1.8774788 -0.043832727 -0.33977073 -0.6198154 -0.75348556 0.441292 -1.000098 0.09746343 0.6879303 -1.7919431 -1.2870204 0.24173298 -0.02676507 -0.04560731 -0.86973166 -0.72493476 -0.07823736 0.8383297 -0.3229327 0.28068075 -0.6541506 -0.29099685 0.45925388 0.06631603 0.0331011 -0.13165618 1.6520886 1.2718061 -0.19607788 -1.2614136 0.39000922 0.85365695 -0.71987873 -0.39510062 0.9368957 0.71668696 -0.6331935 -0.80870444 0.30512762 -0.60236883 -0.091348924 0.11147581 -0.4412768 -0.631583 -1.4290142 0.30471498 -0.06334922 -0.42999315 -1.0742594 0.1216972 1.1434847 0.7246736 -0.04858233 0.63718843 -0.842708 0.54727817 -0.38424355 0.2663257 0.35635087 0.7445873 1.2759225 0.3280817 -0.40115917 0.52938944 1.55978 0.9580389 1.1466792 1.9360732 0.25557703 -1.8141677 -0.32997003 -0.0022979844 0.029115543 -0.7408451 -0.20130706 0.7888068 0.05415324 0.48522034 -0.9852195 -1.036882 -0.73063767 0.08874427 0.4519824 0.24234883 -1.3688416 -1.0274246 0.14063574 -0.6933165 -0.43267277 0.7134043 -0.13665658 -0.17481978 1.1066065 0.30695933 0.51709664 -0.8161559 -0.05576312 0.75553733 1.1193358 0.3311484 -0.31575248 1.8285661 -1.0418624 -1.2389648 0.36980864 -1.6926823 -0.6446917 1.7511581 -0.1290488 -0.3920455 0.53658295 0.5079638 0.074156806 0.79884255 0.33546495 0.0927569 -1.3478788 0.34283945 1.168092 0.57787883 -0.023186706 0.72372097 -1.5055194 0.6170077
ENSP00000280772 -0.075762905 0.3334727 0.6212889 -1.2022234 0.14379548 0.038404554 -1.0291147 -1.1961263 -0.18979093 -0.206472 0.7809906 -1.2368371 0.038161702 1.5495394 0.27570227 -1.8570232 0.19240637 1.5120733 -0.041179795 -1.27644 -0.2521781 -0.61314327 0.44367838 -0.59385496 -0.08312742 -0.9173795 -1.0897299 0.05950357 0.41366538 0.107456245 -0.36647266 -1.5403255 0.30794692 0.71450007 0.49742743 -0.794908 -0.03963643 0.22966458 0.31744635 -0.47460315 1.1677523 0.4031611 -0.7081518 -0.60231197 -0.114407346 -0.100146696 0.24673855 -0.074611776 0.8809595 0.38435334 -0.3035895 -0.69399565 -0.74556816 0.056254018 -0.06381239 -0.05067971 -0.2881945 -0.8864741 1.4552044 -0.47596645 -0.14979734 0.39847797 -1.0044615 0.06934156 -0.15014948 -0.8017882 0.2756939 -0.42643303 -1.1216826 -0.49300402 -1.0570555 -0.0036306903 0.6272925 -0.03808396 -1.806879 1.1345614 0.16177513 0.5060457 -0.6218117 0.32458934 0.95183825 0.96031165 -0.6215203 0.32641238 0.06985561 -0.5815526 1.5215625 2.2644928 0.13503672 -0.1017463 -1.3325614 -0.008849042 -0.93307996 -0.07422546 1.0434283 0.27981654 0.534894 -0.3507303 -0.8532057 0.5161143 2.3640954 -1.8960334 -0.4755243 -0.8122228 -0.44946763 -0.47564438 -0.049785204 -1.5870779 -0.54103965 -0.46290714 -0.01538673 -0.37963757 1.2389531 1.6428374 1.2261742 0.5133563 0.75732946 -0.0043904013 1.1863922 -0.29515642 -0.22650543 1.1625035 0.07144995 -0.08684277 -1.7204986 -0.95460236 0.6305088 -0.25819004 -0.68575114 1.7837785 0.2338375 -0.17052072 0.7991243 1.159226 0.7303389 -0.20658125 -0.1664295 -1.7423784 -0.14605641 -0.8999308 -2.8638966 -0.88022226 -0.24119659 0.05139889 -0.031398106 -0.4125053 0.3811456 0.767005 -0.18857266 -0.9672322 -0.52882516 0.73126656 0.14227547 0.53099775 1.4544985 0.78537273 -0.13514934 0.63339347 -2.5232732 -0.1907649 0.6831273 -1.7907095 0.733665 -2.0117302 0.8501328 0.7622629 -1.0659202 0.8280785 -1.2314711 0.23999795 1.3621168 0.5747179 1.4409763 -0.5861924 1.8225114 -0.12261504 0.49959335 0.99505335 -0.9415802 0.51943624 -2.1958697 -1.5434651 -1.0307238 0.48700616 1.6182616 0.85005105 -1.2235914 0.4430006 -0.5362666 0.5805421 -0.16726945 0.9440398 0.7201596 0.8031164 0.6365959 -0.4111794 0.8373225 1.2040516 -0.6932755 1.8553631
ENSP00000294179 -0.35165954 -0.5248802 0.16253005 -1.009458 -1.2698522 -0.62909424 0.6311226 1.4746076 -1.3605584 -0.58283395 1.4309202 -3.3961349 0.52734935 0.8618945 -1.186835 0.6109679 0.06753331 -0.41854 0.23124894 -1.5148044 -1.7409549 0.7801504 -0.5637568 -0.66097325 -0.0042402036 -0.13366401 0.42102143 0.16728953 0.24001451 -0.22590075 -0.6221206 -0.38812187 0.37106913 -0.7216674 -0.1142437 -0.38531977 0.19969532 1.3776896 0.27068305 -0.64703554 0.15624718 -0.70290035 0.07587759 0.54036516 0.09126604 -0.19919015 0.44841275 -0.056225087 0.046789855 2.0652997 0.40915602 -0.5853712 1.0294557 0.057528295 -1.4811126 -0.52418077 -1.009124 0.16753855 0.10747901 -0.3713143 0.87459135 -0.6993528 -0.020893522 -0.06107104 -0.6499046 0.8493434 0.06332244 -0.727347 -1.5292224 -0.2586547 0.95773864 0.3912364 0.51699245 1.3234407 -1.4140579 -0.20240442 0.3047811 -0.7175719 0.042609863 -0.94566786 1.248772 -0.5777693 0.3023069 -1.0390449 -0.13310869 -0.01574521 0.82775545 -0.06210583 -0.28986645 -0.40950698 -0.011314741 0.91565865 -1.3479189 -0.9524376 2.116393 -1.3829079 -0.115602665 -0.29464892 0.4550051 1.4079586 -0.17097877 0.04145093 -0.3559857 0.32605058 0.2362896 -0.79742724 1.1021568 -0.56361514 1.2875197 1.508622 0.7066527 -0.71729285 0.9022429 1.8117687 0.9719508 0.48600614 0.07386948 0.12938392 0.9727418 -1.0255361 -0.29947704 -1.5405555 1.2046535 -0.667119 0.45807472 0.5693313 1.3299325 0.7955482 -1.3846219 0.60788155 -1.7568741 -0.255876 0.16877763 0.73757404 0.7814624 0.5151615 0.72455376 0.68023664 -1.7113322 -0.18426202 -0.21049358 -1.1913637 -0.012605978 0.66430885 0.8562295 1.2483327 0.22618443 -0.10115521 -0.38745344 0.18108052 -0.6825302 -0.51128507 -0.9524633 0.36049467 1.8769499 2.2228532 -0.104517736 -0.41401204 -1.1150025 -0.076732695 -1.774446 -1.2361343 1.485802 -1.0108722 -0.259663 -0.61281544 -0.89301115 0.30437043 -1.5069584 -0.68201375 0.1616562 -0.3936331 0.8823936 0.8300647 0.57962644 -1.1220183 0.00062324555 -1.1833729 0.21404703 -0.6005477 -0.38705385 0.14280517 -0.19855191 0.67851526 0.7083621 0.76573265 -0.9560381 -0.12938556 0.4152948 -0.25750276 -0.56392896 0.61661685 0.0957605 -0.97868186 1.3190444 -0.5747739 0.12578021 1.5536742 0.7514155 0.047102455
ENSP00000295400 -0.71119905 -0.22073935 -0.14260446 -0.37470838 -0.67216355 1.5301168 -1.1684161 -0.35645995 -0.8113409 -0.030574255 0.40580666 0.50600755 -0.006788971 0.41498983 0.845129 -2.103402 0.7254515 -0.40192232 -0.28362995 -0.97514725 -0.5343992 -2.1085324 0.63352436 -0.36549756 -0.91905946 1.7118955 -2.0575047 0.4202992 -0.0957815 1.0495393 0.34828046 1.0109508 -1.0018378 -2.4853444 -1.1441432 -1.5654901 -0.25002074 1.0188236 -0.18388054 -0.012465052 -0.66035956 -0.39292333 1.5597532 -0.55527467 0.1499207 1.1323074 1.3756918 -1.9769967 0.6727161 -0.161874 -0.8906431 0.4019479 0.39921173 -0.7952973 1.0988061 -0.7030948 0.4493484 -0.106739566 -1.6349047 -1.3570838 -0.09492516 1.2038558 -0.11751102 -1.3088042 0.964532 -1.680316 -0.5783699 -0.26854062 -0.009130002 0.2532994 -2.107678 -1.3371066 0.43636382 -0.07999186 -0.68616104 -0.8030258 -1.1329836 -1.5755244 -0.50866795 -1.0557653 1.2875923 -1.060784 -0.42574853 -0.7971755 0.17796166 -0.44907692 1.1107142 0.6825848 1.4900479 1.3928423 0.14197217 0.49177793 0.9617469 -1.9371748 -0.4629651 -1.5979518 0.7878851 0.8969486 -0.9988873 1.6707087 -0.05852656 -0.7064814 1.8076384 -0.50528 1.1378039 -1.7187675 0.20935191 1.0943605 -1.4534376 0.7036821 0.63990045 -0.8610045 0.064391196 -0.60190576 -0.082798295 -0.049045786 -0.12961355 1.2880418 -2.3426254 -0.7526625 0.32079518 -0.051692188 -1.1514801 -0.030647775 0.61055225 1.0406411 -0.6336539 0.4230656 0.6404671 0.27100748 -2.4815118 -1.0924977 0.6897601 2.0415196 -0.5073962 1.7599155 -0.22424555 -0.2376099 -1.1195235 -1.20552 -0.55874556 -1.1010101 0.66617453 -0.47499037 0.42954257 1.6657536 -0.53221107 -0.2814282 1.1593145 -1.432969 -0.03506599 0.39777645 1.0065016 -1.4838228 0.60197425 0.651393 -0.99342126 0.5772391 0.6946272 0.18655738 -0.26438782 0.36895934 0.39383176 0.04512256 -1.0019373 -0.78550607 1.7828515 1.8352617 -0.9679859 0.659737 -1.3104078 0.19758299 -0.9894439 -0.78917086 0.16412649 0.08770581 -0.48556495 -1.2170793 1.5966601 -0.17008175 0.528459 0.28108445 0.42763335 -0.36067474 -0.007855056 0.34721124 -1.00279 0.16954823 -0.69033253 1.6808697 0.4476678 -1.3555095 -1.1039865 1.0346957 -0.59253997 0.46360606 -0.76402885 -0.15899804 0.27734333 1.7100948
ENSP00000297044 0.43907803 -1.0231304 1.6248713 0.3775731 -0.94969195 -0.9241836 -2.045524 1.1120218 2.1131072 -1.1760398 0.46330214 1.7189399 -0.47222835 0.248613 0.47188106 -0.023860384 1.0969886 1.3572428 1.1693639 0.1689762 -0.507987 -1.8071712 -0.7559737 -0.9894789 -0.4177767 -0.4068038 0.34764522 -0.3011804 1.2392308 1.1091729 0.15397824 0.24590129 1.461109 -0.8260107 -0.21882093 1.5345281 -1.2852372 -0.24307644 0.13874012 -0.84372556 -0.8517165 0.09098535 -0.00515576 1.043705 -1.289572 1.0232975 -1.7984898 -0.2840819 -0.6267257 1.1984193 -0.66502327 -0.5284939 -0.7336563 -1.2782558 -0.4461467 -1.4561338 0.53105146 0.39706132 -0.28148186 0.120823465 -0.7122056 -1.7956318 1.6863722 -0.25633246 -0.51401675 -1.7400397 -0.54815024 0.5540499 -0.20195267 0.35716924 1.1792586 0.101448014 -0.88641495 -0.17762001 1.3239728 -0.59078586 -1.4277098 0.80534196 1.0041462 0.88667464 0.3291534 0.75296485 -1.606039 -1.230054 -0.38307744 -0.6924266 -0.99547464 0.049060915 1.876596 0.18272263 -0.6325281 -0.8961641 0.16690321 -0.12656216 1.0103626 -0.71903336 -0.13034268 1.0348917 -0.2831123 0.89243037 1.4689453 1.3503693 -0.20682639 -1.2215598 -0.5253088 -0.4378091 1.0714521 1.279449 0.20258123 -0.75591314 -0.29189736 0.8819526 1.3569362 -0.19160566 2.0075076 0.7342208 -0.81483775 0.95246273 -0.08990541 0.54489684 0.7168043 -0.57249117 -0.77425164 -1.3945206 0.35614425 1.2304863 1.3348861 -0.22057068 0.7936013 0.47910216 0.39844495 0.38627073 -0.26895058 -0.71148485 0.29034054 -0.6563203 -0.9157795 0.49575028 -0.0974996 -0.34959295 -0.21231836 1.316164 1.1567322 0.44305757 1.5150925 -1.2729259 0.31261623 1.1978546 0.33725032 0.22618918 1.0004153 -0.08271355 0.7273059 0.7442137 0.07025731 -1.3529761 -0.6798909 -1.2614448 0.020540426 -0.32486415 -1.2969236 -0.3241929 -0.59474754 -0.4498158 -2.3620439 0.36622256 0.82611525 -1.1657162 -0.7802852 0.12049836 1.2445399 1.0417627 -1.0940884 -0.38031313 0.83625704 0.054067004 0.7212758 -1.6201326 -3.624528 0.70841396 -0.80014974 -1.0436114 -1.104517 0.08412169 0.136838 0.52211565 0.77531767 0.080306165 -2.6165295 -2.1834366 0.38115403 2.2738132 -1.2215235 0.5295272 -0.6475506 1.0046955 -0.32277244 0.43533278 0.3030668 1.5392514
ENSP00000297135 1.9067546 0.33605897 -0.28636274 0.40119666 -1.3326011 -1.3069705 -1.8361114 -0.11955745 -0.4104738 0.2775615 0.6013701 0.11372636 1.1374797 -0.5136048 -0.9936987 0.08291683 -0.29663604 -0.048966885 0.50158465 -0.9987441 -0.88074577 0.7537561 2.6305733 -0.30603874 1.0903388 0.67721707 0.47303241 0.4166172 0.2623349 -0.97529453 -1.8335109 -0.9954018 -0.13642281 -1.4844099 -0.48163325 1.3833922 0.67439055 -0.21576187 -0.5403062 0.4041096 1.1287209 0.5951731 0.7881599 -0.8357142 -1.5713915 -0.07456825 -0.6992061 -1.8651358 -1.1188972 -0.4465222 1.3044403 0.47684294 1.1808397 0.33741906 1.0228319 -0.56618387 -0.28690124 0.6726875 1.021159 1.0520685 0.73128474 -0.3872585 -0.076467656 1.6337906 -0.34785494 1.1433638 0.5146519 -1.5046369 0.04722794 -1.1355234 1.2956218 -0.9676043 0.60826313 0.30522007 -0.5324173 0.60898244 -1.832548 0.5068914 -1.3253794 -0.90536296 -1.6872729 -0.58879477 -0.28111973 -0.08431333 -1.1646028 -0.44398296 -0.88711125 -0.47213015 1.5471944 -0.7888599 -1.7864236 -0.68004405 -0.7450495 -0.12262529 -1.0484197 0.61221623 0.18736954 -0.28288773 0.9936341 -0.7943036 1.7164611 -0.7646662 -0.32726753 -0.7091876 0.5664053 0.081257395 0.35219163 0.40333804 -0.24442394 -0.73664063 -0.11312658 0.33393806 -0.7592926 -0.7698562 0.79524744 -0.012296118 1.011371 0.62930316 1.2253917 -1.4766496 0.08837038 -0.7041814 0.3573427 -0.35773855 -1.8755828 -1.0335844 -0.0014199334 -1.6665719 0.72720516 -0.08130319 -0.641175 -1.5740755 0.89020395 -0.3749293 -2.5258648 -0.70983756 -0.45152453 -1.0043292 0.3153893 -0.5769376 1.0474123 -0.5035746 -0.81356275 -0.010450375 0.23308834 0.6202088 1.0418606 -0.12182899 -0.8679232 -1.4212056 0.51048195 -0.26368883 -0.6449213 0.14476165 0.2685248 0.3182266 1.6445861 -0.22876196 1.5628986 -1.0196475 0.21364166 -0.2805221 -0.5171124 -0.78408647 0.5008986 -0.8871027 0.23074836 0.2872454 0.5812296 1.3692219 0.7159003 0.011733589 0.19246803 -0.7913796 0.38735035 -0.57148576 -0.6333156 1.0681348 0.09215421 -0.021507181 -0.52935445 -0.6412403 -0.45769745 0.26126117 0.063772455 -0.17772575 -0.66221637 0.95694035 -0.24221781 1.001506 0.25621498 0.94846344 0.023642747 -0.87090844 -0.75311244 -1.4238524 0.45454267 -1.2094871 -1.7421869 -0.29572934
ENSP00000299705 -0.6241534 0.10375035 1.7903472 0.81630456 0.48629543 -0.9127464 0.98312324 0.5545479 -0.112502865 -0.19608012 -0.31171948 0.66895914 0.96332 -0.61304694 0.7503473 0.8244776 0.3899052 1.3326831 -0.68229216 1.1198742 -0.874899 -1.4733242 1.5413262 -0.045725945 -0.057153203 -0.304049 -0.4903767 0.522309 -0.70329005 1.087055 -0.25265926 0.2946852 1.5578082 1.253321 -0.5167762 -0.08294212 0.91050345 0.8612924 -0.57333076 0.3397108 1.3086892 -0.42679477 0.5649144 -1.0630709 1.4124421 -0.18090016 0.24455784 1.2830797 1.3786114 0.4136899 -1.0626143 1.4054459 0.16159114 0.46595132 0.042304136 -1.7608755 0.1274972 -0.95187145 0.5714478 -1.456208 -1.2166806 -0.76040703 -1.0338576 0.7821957 -0.6804738 -0.6822639 -1.1121897 -0.029409528 -0.56363493 -1.0151898 0.6915535 0.09154411 -0.51425666 0.113300614 -1.9698248 0.18908526 0.3661638 -0.7647344 -0.48393947 -0.5984164 0.7607127 -0.6538632 0.9869194 -0.38052046 -0.33973348 -0.50521827 -0.85908204 0.19164148 0.52967507 1.1379505 0.7341142 0.59861994 0.8965511 -0.17678231 -0.29471353 -0.33914334 0.19648702 -0.6329653 -1.3882015 -1.1557534 1.5291209 -1.7487985 0.52933323 -0.4175697 0.7287912 -0.30745822 -0.61893755 -0.07428937 0.44466963 -1.6047658 1.2405788 -0.42366582 -0.37737277 2.0336156 -0.8541417 -0.4839666 0.6432599 0.24436228 -0.46129408 -0.2701617 -1.1674186 0.11708752 -0.26143607 -0.7008605 0.647943 -0.10993864 0.43290117 1.4627249 -0.035535898 0.57606953 -0.276988 -0.15009372 -1.3615797 -0.57285935 -0.2986497 0.0013418433 -0.89324313 0.40417665 0.50194263 0.3834434 -1.048026 -1.010796 0.44973484 0.44417015 -0.6266457 -1.0133233 0.6027327 0.20629658 -0.0625729 -0.8296479 -1.1968678 1.6532078 0.897652 2.0144691 1.3625083 -0.44315064 -0.34747645 -0.7979714 0.2018227 -0.9116285 0.7022444 0.21323362 1.4433627 1.5043267 -0.29366502 -0.09957271 -0.10083794 1.536111 -0.14815876 -0.014682824 -0.8097937 0.41446096 -0.9089189 0.48810425 1.8037431 -1.4236723 0.94128996 1.4855783 0.84010386 -0.050625034 0.23986141 -0.63326806 -1.9783832 0.87145966 0.5843511 0.12540433 -1.3868008 -0.3245006 -0.9739423 0.7607314 0.2861808 -0.026252776 -0.8459202 1.1870487 -0.017682008 0.8826861 0.3475804 0.9589998 -1.1900015 -2.02189
ENSP00000299886 -0.22570539 0.34659693 0.16350712 0.42118376 -0.07047348 -1.0425494 0.090053104 0.7849467 0.5699776 0.013883604 -0.49906108 -0.38283646 1.0369763 1.1515341 -0.6082102 -1.0179785 0.67639583 0.024099734 0.30496576 0.108370475 0.5632621 1.0689068 0.21148443 -0.771768 -0.19963197 -0.51007277 0.03947206 0.6027414 -1.3904538 0.24166147 0.5655604 -0.23543687 1.5397794 -0.1576845 -0.22381964 0.33805653 -0.42337838 0.5867203 0.072379634 0.8189928 -0.29954305 -1.1999327 0.021147434 -1.3619053 0.32728994 -0.056998372 0.10147404 0.98814374 -1.2697223 1.3701701 0.31848624 -1.1377231 0.1763339 -0.86311954 1.1972445 0.697373 0.58665365 0.96429485 -1.3475178 0.36461964 -0.4674559 -0.763244 0.061664186 0.6798292 -1.0896109 1.0280575 0.45087725 -0.63967144 -1.7700316 0.56259817 0.60100985 -0.36634475 0.5497189 1.7143755 0.18513355 -0.36473107 -1.3923944 -0.05500845 -1.3983605 -0.6179135 -1.1339883 0.007268576 -0.1692532 -0.89844716 0.59447736 -0.032583132 -1.5248967 -0.6244178 -0.033919457 -0.44891807 -0.40740004 -0.3249796 0.14460254 -0.57773316 0.28487372 -0.35519838 0.2427812 -0.09577375 0.38669595 -0.47120947 0.50708914 -1.4929947 -0.4108821 -0.3865182 0.49137583 -0.5436995 0.26353034 0.0042075384 -0.315907 -0.85116285 0.6623515 0.9613607 -0.95640135 -0.255835 1.6400745 0.5789764 -1.0148946 0.2552889 -0.7847917 -0.90942866 0.66093516 0.13508546 -1.8432224 0.09095012 1.3478563 -0.3162214 0.4731429 -0.09521385 0.29783943 0.08359846 -0.3435757 -1.2739316 -0.24368368 0.027158186 -0.43792948 0.47815657 -0.17511018 0.6347332 0.9724082 -0.6871346 0.45300123 -0.69076025 0.37270212 0.025627853 0.40108523 1.629329 2.346305 1.116984 1.6053368 -1.6913109 -0.53802425 -0.74794656 -0.0060077966 -0.3184395 0.13098277 0.5894252 1.6917402 0.54911643 0.016249921 -0.6788785 0.9642189 -0.3427483 0.047006067 0.55161935 -0.52055466 -0.27243313 -0.29947427 -0.35099238 0.1330614 0.72960526 0.30498037 0.80924934 1.2470716 0.7773981 -1.2433822 -0.3883836 -0.39757338 0.97552884 -1.5188149 0.3225336 -0.10912809 -0.75287265 0.36568284 0.9658503 0.8917564 1.6077216 -0.061498504 0.13690953 0.07720987 0.21207492 1.7449181 1.2117954 1.6958306 -0.6181394 1.2171412 -0.9819812 -0.46383265 0.032681115 1.0453601 1.0923488
ENSP00000300087 -0.98044235 0.15954399 1.6272004 -0.2916942 0.74326277 0.38353738 -0.5198204 0.04543468 0.320459 -0.3922516 -0.14336225 0.2524777 -0.81168765 -0.09585439 -0.8501414 -0.31889603 1.2895415 -0.326088 0.7872757 0.497547 -0.95061564 0.21095309 -1.9446734 -0.330146 -0.25571424 -0.30934525 -2.0697463 -0.23874417 -1.1167681 -0.40176696 0.45262858 0.059669353 1.6337211 1.50198 2.1054244 0.30504343 -1.2576964 2.0060542 0.07074771 0.21491903 0.8228998 0.25442493 -0.7075827 -0.17846797 0.20270255 -0.8010958 -1.9523588 0.6060731 0.13719667 0.3687642 0.6628519 -0.26558137 -0.17035851 -0.19488649 -1.2258897 -0.30686748 -1.2606869 0.3050468 1.6027833 -1.9757104 -0.74017 0.09004641 1.96526 0.23416008 0.15234846 -0.25939548 0.33475316 -1.0432879 -2.0440779 -0.44341868 -0.314119 -0.39297906 -0.54294556 -0.3754587 0.37913546 -0.26078928 1.0925678 -0.4926529 -0.2851605 -0.51848006 1.1842947 0.22431758 0.79544884 1.1518645 -1.0670638 0.22789548 -0.092621684 1.2655902 0.004142477 0.27119276 -0.39589846 -1.3799368 0.08247302 -0.1660228 1.0353601 0.027202081 -0.61539274 -0.94570476 -0.9373737 -0.90682614 -0.13352053 -0.38524315 -0.82970846 0.95855165 -0.79824567 -0.9205468 0.75190616 -1.4446806 1.855114 -0.7993327 -1.0396615 1.5275509 0.5684644 0.615389 0.79000276 -0.65564305 1.3964937 0.031148827 -1.0252719 0.27767986 -0.108968884 -0.16144384 -0.8299261 0.6219871 -1.0342433 -0.31041518 0.69876504 -0.56380033 0.357249 0.86320406 -2.0616322 -0.34815577 -0.41632742 -0.7015527 1.024215 0.33043754 0.039085235 -0.03682056 -0.41779286 -0.07863531 -0.53495544 0.35141322 -0.3863381 0.1846606 -0.2210939 -0.8141318 -0.25066468 1.1086338 2.0300956 -0.20537125 -2.6188638 1.5900403 0.36956093 0.40975615 -2.2372384 0.2890439 -1.1576942 1.788417 -0.7210282 -0.019699674 0.19365008 1.1965252 -1.3259032 0.94495445 1.2602197 0.46841234 0.46690235 0.87286055 -0.6154067 1.3512436 -1.1290377 -2.0468066 0.68138987 -0.69867855 -1.0384946 0.81796896 1.099979 -0.5394413 -0.12846524 1.0256003 -1.5626482 -0.95003873 -0.19432081 0.9435048 0.86340535 0.2799448 -0.42036346 1.3640915 0.50915855 -0.8626657 0.8854375 -0.3809595 0.019555712 0.07268624 1.2661957 1.510824 -0.56236404 0.13586992 -1.2031981 0.36469465
ENSP00000303145 -0.30777985 0.371994 -0.29930174 0.6377247 -0.62235075 -0.6674764 -0.38528198 0.065194055 1.3949628 0.7788864 1.1546534 -1.4863653 -0.5478018 -0.9541361 -0.41519946 0.4395542 1.0762452 -0.8728513 1.2171032 -0.18460709 -0.79089546 0.4407882 1.7042816 -0.22348417 0.583179 -1.943855 -1.4802054 0.99073166 1.0938182 0.64686006 0.44629693 -0.2895824 -0.24192557 0.9439098 1.0517378 0.089065686 -2.4245975 0.1595022 0.24708228 1.1943498 0.7493308 -0.22406441 0.6910764 -0.15222344 -0.2660863 -0.8132748 -0.40894267 -0.18177179 -0.12920254 0.038683202 -0.17007941 0.14005525 0.01518344 0.043883074 0.7776735 0.05933536 -0.5518497 0.05469566 3.1954203 0.068251 -0.3905975 -0.18954276 -1.3219174 -1.1543444 -0.7424762 -0.44878897 0.7778887 2.137874 -0.59531575 0.114224136 0.3603928 -0.9837936 0.81007636 0.60741967 0.79586244 -0.27594087 -0.8114563 -1.6128755 -1.9007125 0.6390122 -0.7847204 -1.1349181 -1.5523891 -0.07926111 0.18353763 1.3102716 0.9553963 0.3044751 0.15310854 0.26135948 -1.1165065 -1.1012573 -1.9340054 -0.49356312 0.6450453 0.5867501 0.5327109 -0.41519216 -0.46211278 -1.1103936 0.7923287 0.83250374 -0.60088766 0.22109157 -0.56412655 0.08249479 -0.6877663 0.038535733 1.7209742 1.3868753 -1.2452486 0.3978108 -0.71985555 0.14213149 0.8441432 0.68011415 0.6588795 -0.4208724 -0.39092818 -0.52971834 -0.21409212 -0.9102392 -1.2721106 -0.2948886 -1.3032559 0.4121937 -1.243484 -0.50675327 -0.13902132 -0.17436795 0.42994952 0.0896597 1.716781 0.74004155 1.8689878 -1.1528512 1.9987804 0.013606395 -0.7809811 1.461168 0.09617216 0.983946 1.1371175 1.9834571 -0.06312515 1.1740214 -0.35390642 -0.6897121 1.4141055 1.1062866 1.090177 -1.2074493 -0.46900308 -1.9913188 0.6372112 -0.7566254 0.3805746 1.6918715 0.39115834 -0.45714658 -0.7963584 0.48742115 0.70386297 0.5036038 -1.1837461 1.023801 0.25620103 0.08638616 0.55160856 0.71132976 0.4134205 0.085475445 0.77979493 -0.15796587 1.3567202 -0.4811497 0.35467327 -0.34197032 1.0950822 -0.8575087 -0.71614635 0.10361531 1.4861503 2.4013038 0.2829772 -0.16364753 -1.6628492 -1.5433583 -1.3436074 -0.09492127 -1.1217798 -0.39014924 0.5430431 -0.6596783 0.39248228 0.099678755 -0.29990408 1.4544308 -0.08979576 0.21549408
ENSP00000303366 -1.4067045 0.27459097 0.712105 0.9002486 -0.81629604 -0.31351995 -1.1133384 0.41303745 1.0570599 1.0550328 -0.049463466 0.92115563 -0.6040522 0.34463194 0.46287525 -0.58803695 1.2185805 -0.5613474 1.5028431 0.80238944 -0.13640687 -0.07402668 0.43195084 -0.024602935 -1.0590773 0.097876295 -0.17559618 0.8113343 0.12915483 0.6431774 1.7330847 -0.09264779 -0.52960193 1.240456 0.41378564 -0.5217655 -0.04326728 2.0667539 -0.8207017 0.52020365 0.008845051 -0.096751094 -0.57852733 0.062544614 -0.23914382 -0.6445111 -0.6746726 -0.700438 0.12652664 0.8554776 0.77608544 -0.20160751 -0.8294282 0.6546828 -1.3801984 -1.8982638 1.1894957 0.68065 -0.40762597 0.23660654 -0.5781365 -0.9583106 0.27620244 -2.1470268 -0.67234224 0.37514687 1.1945736 0.007377297 -0.9392877 -1.1599809 -0.9648059 0.124186344 0.21945257 0.8727595 -0.008284982 1.3080431 -1.5941811 -0.0029936407 -0.07125005 0.55738014 -1.7825948 -0.5853792 0.8952124 0.6865221 -0.39639407 0.30213758 -0.526037 0.21628498 -0.17997034 0.86505187 -0.6776755 0.13241793 -0.67237985 0.3505085 0.40152842 0.47502097 -1.0815625 0.9646284 -0.5788657 -0.056478005 -0.51328135 1.1004279 0.5317094 0.8194045 -0.7149523 -0.23464836 1.1777387 0.99571747 -1.4352244 0.31407356 0.48850068 -1.3998297 0.064357154 -0.59216195 -0.68035454 0.4166688 0.80026066 -0.02072068 1.0190364 -0.14369234 -1.581522 -0.38012066 -1.7340637 -0.5165783 0.33065397 0.14337115 -0.12398216 -0.73014534 0.7003072 1.6632116 0.98631155 0.80450076 -1.4920164 -0.71426845 -1.2210977 0.11253009 1.715884 0.5527813 0.3371613 -1.0203512 -0.3475538 -1.8809949 0.68215656 0.641431 0.3126454 0.12587896 -1.9925438 -1.1766578 1.3615979 0.4575874 0.6628626 0.8410924 -0.73937315 -0.35489988 0.29606503 -1.7958918 -0.89545137 -0.402481 0.30978325 1.3709837 -0.20916887 0.656042 2.0807853 -0.7155647 -0.18487932 -1.7340032 0.32944593 1.1996998 -0.64628434 -1.0178442 0.38921785 1.1903633 0.4763879 -0.6389973 0.61118907 0.28932744 0.7937797 0.5218205 0.00092218944 0.67761636 -0.6497378 0.42232296 -1.1586837 0.15620214 1.2473927 0.027918287 0.04343816 -0.72657305 -0.6285788 0.43267077 0.87131125 0.10324677 0.87880504 0.5642987 -1.2980405 -0.63852966 -1.3224914 0.51974946 0.7351758 -0.20636763
ENSP00000305442 -1.8359336 -0.4625965 -0.43146315 -0.16266137 -0.701436 0.27926025 1.0602951 0.17265727 1.9075873 0.24219887 -0.55314654 -0.69222796 -0.80596226 -1.2341204 -1.0475364 -0.0599989 -0.57607865 0.30505952 0.6581501 0.09017469 -0.045640104 -1.1803086 2.3244197 -1.1264784 -0.52686435 0.47375593 0.46543083 0.41611898 -0.9878915 0.89979434 -0.22558269 0.23039065 0.20849763 -0.79386646 0.6168818 -1.0982035 -0.17751773 0.2084462 -0.2564609 -0.4539129 -0.2891714 -0.008885788 1.019599 -1.7807533 0.046381146 -0.6014608 -0.62452 1.2617791 0.37486836 -0.062230397 0.04430907 -0.6406712 0.3694576 0.31945613 -0.7196712 -1.4755181 0.54195964 -0.21530975 -1.3965489 0.617122 0.21433687 -0.25033113 -0.015415559 0.14610866 1.0404314 -0.5566132 -0.34498987 -0.9354377 0.027783042 0.81190073 0.53251904 0.4956816 1.0318602 0.24754244 -0.5678505 -1.4913081 0.3801437 -0.66302896 -0.22863148 0.99241954 -0.92523307 0.8832105 0.4020236 0.43389747 0.2681733 -0.61497074 -0.95532244 -1.1361741 -0.294084 -0.02183137 -0.12856624 -0.55009204 -0.23622672 -0.3486478 1.3094243 0.29491955 0.41582105 -0.9654052 0.032568347 -0.0024150743 0.23873898 -0.0069445674 -0.6260916 -0.7376105 0.79335475 0.32600316 -0.64657044 -0.31958425 -1.5771669 -0.76757276 -0.42242855 1.1754211 -1.1739957 -0.13069506 0.5702408 1.0381931 0.06712803 -0.2947713 -0.8877768 -0.2943153 0.9614042 0.61942124 -0.5120675 0.5439645 -0.3437685 -0.6252764 0.17266892 0.50755614 -0.5646332 0.53245 0.106416784 -0.9105504 0.33890012 0.11074489 0.0025127402 0.35728917 -0.37925687 -1.091851 -0.74126196 -0.80977976 -1.1226628 -0.12233262 -0.16561906 -0.710035 0.8957013 1.4815913 0.9540706 0.17681797 1.7969944 -0.96799964 0.6375855 -0.77852166 -0.0894621 -1.5610421 1.0586679 -0.2588887 -0.9276122 0.666561 -0.9333713 0.60226035 -1.1833026 -0.2048592 1.3139055 0.37312964 -0.84954214 -0.042866435 -0.5750042 0.31980556 0.3915159 -1.8425919 -1.464116 1.212455 0.99479747 0.46835223 0.5907919 -0.16545056 -0.6277507 -0.7938312 0.44416884 -0.40350777 0.45807177 -0.08857867 1.0261494 -1.7481854 0.5890617 1.1486673 0.19978774 0.49751315 0.07582273 0.46681646 -0.7091159 1.9956777 1.679873 1.1061697 -0.9907306 -0.42941847 -0.47183198 -1.1862415 0.9042886 1.0051371
ENSP00000305459 -0.3059112 0.91960955 -0.45612314 -0.006372978 -0.1246544 -0.6860148 1.0712975 0.002821099 -0.42235702 -1.1260386 -0.044015482 2.2064927 -0.82278544 0.5205967 0.7110819 0.31563452 0.07202376 -0.092409946 0.67746097 -0.01177641 -1.4144586 -0.005356619 1.171416 0.8123717 -0.08337897 -0.019021079 -0.73475534 1.3233783 -0.1551554 0.32605225 0.26915532 -1.1511899 0.4480236 1.1953033 0.39222226 0.4571569 -0.4042753 -0.719722 0.29895014 0.3759009 0.27294257 1.2990378 0.36715093 0.5666094 0.5972401 -0.7067704 -0.24769528 0.5592598 -1.4329407 0.783923 0.552699 0.23641048 -0.8120119 1.0122522 -0.80563855 0.56949204 -0.9987387 0.68186694 -0.20787789 -1.2918103 -0.42844445 -1.1448263 -0.20278685 1.0288461 1.7233267 -0.6172596 0.66767794 -0.60276353 2.1596527 -0.03955422 0.46178505 -2.2195425 0.31065887 0.55865103 -0.29726538 -0.75970376 -0.34839657 -0.26613238 0.21952534 0.7637373 0.8010715 0.055190537 -0.16267279 -0.34703287 0.32880685 1.5549424 0.77561706 2.2741964 -0.43363377 1.6256292 -0.67918473 0.87282884 0.0264215 -0.8578099 0.40887716 -0.69256794 -0.058936696 -0.13828698 0.35891002 -0.27139434 -0.9707435 0.9631557 -0.6615373 -0.071806036 -1.5818471 -0.6478463 -0.84596854 -0.64455163 -2.930606 0.04606645 -0.7598939 1.8081434 -0.9357044 -1.0616897 0.018489676 -2.9315388 -0.12264263 0.09515769 -0.806058 -0.6764785 -1.0853915 -0.74104 0.014487065 -0.52054435 -0.10835735 -0.031803668 0.15423737 -0.45340708 0.50565153 1.2496741 -0.22993757 0.92171115 1.4708418 -0.95010334 -0.2654462 0.98254496 -0.44537994 -0.40440795 1.3049352 0.47194874 0.14469016 -0.80050355 0.8388524 -1.2342001 -0.029808326 1.7562915 -0.18793754 0.32803357 1.2195084 -1.2186472 -0.013284658 -0.87913823 -1.9583496 1.3710556 -0.037783418 -0.95038635 -0.518762 0.69487303 -0.49370208 -0.948498 -1.100437 -2.851867 0.66169643 -0.5846095 0.23359118 -0.00080237776 -0.83196 0.59060895 0.25685677 -0.62154114 0.044133548 0.107659325 0.803045 -0.3444534 0.04041106 -0.6753953 -0.6802239 1.3541033 0.04445574 1.3073107 -1.1904129 1.0489023 -0.22350672 0.037314985 0.88888395 0.2931869 0.15060283 0.5386968 -0.6006642 -0.09266352 0.7090689 -0.11726715 1.0667098 -0.06105647 -1.3316722 1.1668977 -1.7773359 0.37359843 -0.04218551 -0.22148149
ENSP00000306010 1.1898192 -0.30301908 0.2119532 0.77747905 -0.15442343 0.7583989 -1.9278091 0.79762906 0.13308953 0.8264686 -0.8931278 2.8317192 0.09624656 -1.6039493 0.25425336 0.15399413 -0.9327708 0.3484851 -0.12857927 0.8236779 0.25928202 1.206422 1.3151698 -0.622451 -0.9029999 -0.46069375 0.42394856 2.0686488 0.96647316 -1.0558555 0.051262498 0.123469606 -0.6836851 -0.08016414 1.6372912 -0.8775688 -0.82171726 0.6209675 -0.15589938 0.16977611 -0.26826152 0.2239224 -0.59443873 -2.7168262 0.5154573 1.1046892 -0.013571545 -0.4098437 -1.5393434 -0.16730405 0.02225348 -0.5315316 -0.373452 -0.78711414 1.1686138 -0.007140836 0.6067671 0.67853713 0.41484708 -0.2366186 -0.11640273 0.5051662 -0.89869016 -0.3455721 -1.2446893 0.9995621 -0.12692249 0.48806494 0.0041396883 0.6620023 -0.0035488822 -0.9079052 0.038573824 0.31113136 0.010806048 0.5790618 -1.6837441 -0.24839808 -0.27195606 -0.7317442 -2.4987023 -0.15442826 -0.18793762 1.0314412 -0.06848233 0.4442791 -0.7342679 -1.88563 0.27042344 -0.13499522 -0.8716154 -0.0041024075 0.821687 -0.9381289 -1.1140815 -0.6451785 -0.25207683 1.5689691 1.7810242 -1.0433447 -1.7390486 0.5114298 -2.6863892 -1.0029488 0.7674548 -0.057408784 0.15372272 0.5547018 2.0496676 1.1135805 0.032248657 -0.33798048 -1.8306646 0.24890436 -0.09817938 0.52113265 -0.15724921 -0.47345418 -1.7173412 1.1629362 -0.5767279 -0.6278609 -1.9079494 1.1768266 -1.3950114 1.3537782 0.98683405 -0.019969901 -0.9922628 0.4003933 -0.45919046 0.3675332 0.2284969 -0.82655364 0.5515217 0.6086035 -1.124925 0.4270463 -0.8521026 -0.22756526 0.83352166 0.6079659 0.44754446 -0.09869608 -0.41667244 1.2759923 -0.09019122 0.33767772 -1.1853092 -1.5715363 -1.3069706 -0.6931873 -0.9859343 0.7663774 0.49901608 0.57099503 0.53778726 -0.1266673 1.182171 -0.266729 -1.316041 1.3665032 0.31551057 -1.2583671 0.8766142 1.4028443 -1.0438149 1.1193274 -1.6929579 -1.4596148 1.8202761 -0.33620507 0.23971212 1.2088608 0.15783533 0.78741246 0.0042486144 0.7473387 -1.1667217 -0.09142266 -1.1924366 0.58100134 -0.56490606 0.5369863 -0.79321 0.84685 -0.5696068 0.82189596 0.2845832 -0.168119 0.80076677 0.965931 1.2907468 0.16022122 1.0687042 0.36381558 0.04338958 0.43812257 1.0620568 1.7150989
ENSP00000306881 -0.8289362 -1.4668738 0.5808422 1.0387119 -0.19816029 -1.7520993 -0.40593284 -0.14458361 -1.32901 -0.8052364 -0.01938526 1.2803499 -0.7039036 0.9211332 0.56866735 0.46184674 0.4351715 -0.79839146 0.08203755 -0.3749945 0.4790428 -1.3198861 0.5788238 -1.7635765 -0.9511614 2.0514746 1.3108677 0.14459279 -0.0145063065 0.2391649 1.1434788 0.86566067 -1.2356977 -1.001799 -1.8363746 -0.5659532 -1.1126587 0.6004967 -2.1468527 0.997962 -0.9820239 -1.1987661 -0.4052124 0.5778335 -0.91473806 0.45577145 -0.873177 -1.2479755 -0.49936765 -1.2491912 -0.05559919 -0.27680263 1.508122 0.18314612 -0.22247973 0.15371554 0.23301306 -0.79521465 -0.1813484 2.2754285 -0.34456605 0.7226512 0.19536337 -0.045470487 -0.1780655 -0.9936351 -0.03209946 1.3224026 1.3462474 0.5576723 -1.5420394 0.42978474 -0.6578892 1.188434 -0.19588536 0.1267326 -1.1850181 -0.24065883 0.56712794 0.90272415 0.31828588 0.30532825 0.03762959 0.47615528 -0.27103627 0.55270845 -0.027603244 0.49012876 1.0940417 -0.9315556 -1.782669 0.5279423 -0.9549968 1.361718 -0.7029408 0.21572931 -0.7336728 0.3880304 0.33055803 -0.32346734 -1.9278647 1.0652627 -0.5364422 1.0540612 0.2909123 0.41362467 1.2283564 0.11264641 0.7747746 0.65259475 0.6881967 -0.27039406 1.2955768 -0.4144877 1.3893188 0.39365077 -0.01193776 0.71327 -0.052983984 0.611851 -0.7651445 0.29669225 2.0052183 1.3020064 -0.5714092 1.1286794 1.5025197 -0.15923864 1.7759212 0.9223894 0.4070903 -0.24212159 -1.5683438 1.1068809 1.7873529 0.8357595 1.6399579 0.16661707 1.4793054 -1.4923593 -0.654378 -1.6536119 0.6591129 0.5105395 0.5475089 -0.9879433 0.55954957 -1.4231478 0.099716604 1.0506579 0.40056944 -0.956486 -1.5011023 -1.5293481 0.19553 0.06967152 -1.6423744 -0.35044795 -1.2260234 -1.3275105 -0.53329784 -0.60513353 -1.1277089 -0.9458593 0.2788637 1.0177376 -0.8098861 -0.33867094 -1.0678321 -0.21556616 0.17741327 1.7558806 -0.3466248 1.7122521 0.43284422 1.4685632 0.104604706 -0.48050213 1.0781778 -0.78950936 0.21749553 0.02464841 1.8184533 -0.5120546 -1.28169 0.95529395 -0.57324344 -0.6843179 -1.620324 -1.1969457 -1.1822497 1.4296678 -0.7812501 1.2374502 0.4323045 0.015322901 -0.67271626 -1.3698804 -0.9160654 0.20824146
